{"learner":{"attributes":{"scikit_learn":"{\"_estimator_type\": \"regressor\"}"},"feature_names":["location","hour","day_of_week","weather"],"feature_types":["int","int","int","int"],"gradient_booster":{"model":{"gbtree_model_param":{"num_parallel_tree":"1","num_trees":"100"},"iteration_indptr":[0,1,2,3,4,5,6,7,8,9,10,11,12,13,14,15,16,17,18,19,20,21,22,23,24,25,26,27,28,29,30,31,32,33,34,35,36,37,38,39,40,41,42,43,44,45,46,47,48,49,50,51,52,53,54,55,56,57,58,59,60,61,62,63,64,65,66,67,68,69,70,71,72,73,74,75,76,77,78,79,80,81,82,83,84,85,86,87,88,89,90,91,92,93,94,95,96,97,98,99,100],"tree_info":[0,0,0,0,0,0,0,0,0,0,0,0,0,0,0,0,0,0,0,0,0,0,0,0,0,0,0,0,0,0,0,0,0,0,0,0,0,0,0,0,0,0,0,0,0,0,0,0,0,0,0,0,0,0,0,0,0,0,0,0,0,0,0,0,0,0,0,0,0,0,0,0,0,0,0,0,0,0,0,0,0,0,0,0,0,0,0,0,0,0,0,0,0,0,0,0,0,0,0,0],"trees":[{"base_weights":[-1.08091264E-7,-2.1553628E0,8.769625E-1,-1.6971711E0,-2.9855375E0,4.1304593E0,1.8102503E-1,-3.0119417E0,-6.971112E-1,-9.588335E-1,-1.7626116E0,4.560324E0,1.0030293E0,-9.174084E-1,1.2782333E0,-9.6914834E-1,-5.189811E-1,-4.1336384E-1,1.7114377E-1,-5.00576E-1,-5.7870626E-1,1.205192E0,2.0083892E0,-1.4240287E-1,-5.2089846E-1,1.2318696E0,-2.580528E-1],"categories":[],"categories_nodes":[],"categories_segments":[],"categories_sizes":[],"default_left":[0,0,0,0,0,0,0,0,0,0,0,0,0,0,0,0,0,0,0,0,0,0,0,0,0,0,0],"id":0,"left_children":[1,3,5,7,9,11,13,15,17,-1,19,21,-1,23,25,-1,-1,-1,-1,-1,-1,-1,-1,-1,-1,-1,-1],"loss_changes":[5.8795707E4,3.4168281E3,5.0061387E4,7.622713E3,8.1790234E2,1.3028359E3,2.1954076E4,6.962754E2,2.8441572E3,0E0,4.166382E0,2.8902227E3,0E0,3.2995796E3,5.5113645E4,0E0,0E0,0E0,0E0,0E0,0E0,0E0,0E0,0E0,0E0,0E0,0E0],"parents":[2147483647,0,0,1,1,2,2,3,3,4,4,5,5,6,6,7,7,8,8,10,10,11,11,13,13,14,14],"right_children":[2,4,6,8,10,12,14,16,18,-1,20,22,-1,24,26,-1,-1,-1,-1,-1,-1,-1,-1,-1,-1,-1,-1],"split_conditions":[7E0,6E0,1E1,3E0,6E0,6E0,1.7E1,6E0,5E0,-9.588335E-1,5E0,5E0,1.0030293E0,6E0,2E1,-9.6914834E-1,-5.189811E-1,-4.1336384E-1,1.7114377E-1,-5.00576E-1,-5.7870626E-1,1.205192E0,2.0083892E0,-1.4240287E-1,-5.2089846E-1,1.2318696E0,-2.580528E-1],"split_indices":[1,0,1,0,1,0,1,1,0,0,2,0,0,0,1,0,0,0,0,0,0,0,0,0,0,0,0],"split_type":[0,0,0,0,0,0,0,0,0,0,0,0,0,0,0,0,0,0,0,0,0,0,0,0,0,0,0],"sum_hessian":[3.1104E4,8.995E3,2.2109E4,5.798E3,3.197E3,3.895E3,1.8214E4,2.504E3,3.294E3,2.726E3,4.71E2,2.516E3,1.379E3,9.102E3,9.112E3,2.138E3,3.66E2,2.143E3,1.151E3,3.08E2,1.63E2,2.008E3,5.08E2,5.909E3,3.193E3,3.923E3,5.189E3],"tree_param":{"num_deleted":"0","num_feature":"4","num_nodes":"27","size_leaf_vector":"1"}},{"base_weights":[2.4224124E-5,-1.5091729E0,6.140784E-1,-1.1883181E0,-2.0905137E0,2.8924038E0,1.2673442E-1,-2.1089532E0,-4.8805133E-1,-2.2376297E0,-1.2361147E0,2.1457894E0,3.176887E0,-6.4225894E-1,8.9487004E-1,-6.7853975E-1,-3.63711E-1,2.763261E-1,-3.2757923E-1,-6.586146E-1,-6.9530755E-1,-3.352435E-1,-3.9362535E-1,6.275291E-1,7.1957517E-1,1.5817541E0,8.411056E-1,-4.9181798E-1,-7.890622E-2,8.6240274E-1,-1.8065186E-1],"categories":[],"categories_nodes":[],"categories_segments":[],"categories_sizes":[],"default_left":[0,0,0,0,0,0,0,0,0,0,0,0,0,0,0,0,0,0,0,0,0,0,0,0,0,0,0,0,0,0,0],"id":1,"left_children":[1,3,5,7,9,11,13,15,17,19,21,23,25,27,29,-1,-1,-1,-1,-1,-1,-1,-1,-1,-1,-1,-1,-1,-1,-1,-1],"loss_changes":[2.8826824E4,1.675502E3,2.4548986E4,3.7375293E3,3.9920996E2,8.2068945E2,1.0760015E4,3.4054102E2,2.8048845E3,4.133789E0,2.7878418E0,9.706055E0,2.1899336E3,3.4418809E3,2.7011332E4,0E0,0E0,0E0,0E0,0E0,0E0,0E0,0E0,0E0,0E0,0E0,0E0,0E0,0E0,0E0,0E0],"parents":[2147483647,0,0,1,1,2,2,3,3,4,4,5,5,6,6,7,7,8,8,9,9,10,10,11,11,12,12,13,13,14,14],"right_children":[2,4,6,8,10,12,14,16,18,20,22,24,26,28,30,-1,-1,-1,-1,-1,-1,-1,-1,-1,-1,-1,-1,-1,-1,-1,-1],"split_conditions":[7E0,6E0,1E1,3E0,6E0,3E0,1.7E1,6E0,4E0,5E0,3E0,6E0,4E0,3E0,2E1,-6.7853975E-1,-3.63711E-1,2.763261E-1,-3.2757923E-1,-6.586146E-1,-6.9530755E-1,-3.352435E-1,-3.9362535E-1,6.275291E-1,7.1957517E-1,1.5817541E0,8.411056E-1,-4.9181798E-1,-7.890622E-2,8.6240274E-1,-1.8065186E-1],"split_indices":[1,0,1,0,1,0,1,1,0,2,2,2,0,0,1,0,0,0,0,0,0,0,0,0,0,0,0,0,0,0,0],"split_type":[0,0,0,0,0,0,0,0,0,0,0,0,0,0,0,0,0,0,0,0,0,0,0,0,0,0,0,0,0,0,0],"sum_hessian":[3.1104E4,8.995E3,2.2109E4,5.798E3,3.197E3,3.895E3,1.8214E4,2.504E3,3.294E3,2.726E3,4.71E2,1.077E3,2.818E3,9.102E3,9.112E3,2.138E3,3.66E2,9.88E2,2.306E3,1.803E3,9.23E2,1.9E2,2.81E2,8.95E2,1.82E2,4.24E2,2.394E3,2.507E3,6.595E3,3.923E3,5.189E3],"tree_param":{"num_deleted":"0","num_feature":"4","num_nodes":"31","size_leaf_vector":"1"}},{"base_weights":[3.959059E-5,-1.196222E0,3.914775E-1,-9.9151546E-1,-1.5668373E0,1.4472564E0,8.872016E-2,-1.361964E0,5.079226E-1,-1.6287453E0,-1.5342073E0,-2.5068805E-1,2.0256503E0,5.0270116E-1,-6.7102134E-1,-3.0089265E-1,-7.3443764E-1,9.143842E-2,1.6541876E-1,-4.3652526E-1,-4.9927753E-1,-4.4864705E-1,-4.941882E-1,2.6684074E-2,-2.6004738E-1,6.9380945E-1,4.5018974E-1,-4.8748185E-3,7.7428E-1,-3.4101343E-1,-6.317972E-2],"categories":[],"categories_nodes":[],"categories_segments":[],"categories_sizes":[],"default_left":[0,0,0,0,0,0,0,0,0,0,0,0,0,0,0,0,0,0,0,0,0,0,0,0,0,0,0,0,0,0,0],"id":2,"left_children":[1,3,5,7,9,11,13,15,17,19,21,23,25,27,29,-1,-1,-1,-1,-1,-1,-1,-1,-1,-1,-1,-1,-1,-1,-1,-1],"loss_changes":[1.4565762E4,5.802744E2,7.491386E3,2.746353E3,3.0092773E0,5.129916E3,5.729293E3,1.543185E3,8.485947E0,3.2832031E0,5.4311523E0,2.7797638E2,5.836758E2,1.2716633E4,1.3773711E3,0E0,0E0,0E0,0E0,0E0,0E0,0E0,0E0,0E0,0E0,0E0,0E0,0E0,0E0,0E0,0E0],"parents":[2147483647,0,0,1,1,2,2,3,3,4,4,5,5,6,6,7,7,8,8,9,9,10,10,11,11,12,12,13,13,14,14],"right_children":[2,4,6,8,10,12,14,16,18,20,22,24,26,28,30,-1,-1,-1,-1,-1,-1,-1,-1,-1,-1,-1,-1,-1,-1,-1,-1],"split_conditions":[6E0,6E0,1E1,5E0,2E0,7E0,6E0,4E0,1E0,1E0,5E0,6E0,6E0,5E0,1.7E1,-3.0089265E-1,-7.3443764E-1,9.143842E-2,1.6541876E-1,-4.3652526E-1,-4.9927753E-1,-4.4864705E-1,-4.941882E-1,2.6684074E-2,-2.6004738E-1,6.9380945E-1,4.5018974E-1,-4.8748185E-3,7.7428E-1,-3.4101343E-1,-6.317972E-2],"split_indices":[1,0,1,0,1,1,0,0,3,3,1,0,0,0,1,0,0,0,0,0,0,0,0,0,0,0,0,0,0,0,0],"split_type":[0,0,0,0,0,0,0,0,0,0,0,0,0,0,0,0,0,0,0,0,0,0,0,0,0,0,0,0,0,0,0],"sum_hessian":[3.1104E4,7.668E3,2.3436E4,4.942E3,2.726E3,5.222E3,1.8214E4,3.963E3,9.79E2,9.24E2,1.802E3,1.327E3,3.895E3,1.179E4,6.424E3,2.98E3,9.83E2,1.74E2,8.05E2,1.64E2,7.6E2,1.353E3,4.49E2,8.56E2,4.71E2,2.516E3,1.379E3,9.435E3,2.355E3,3.193E3,3.231E3],"tree_param":{"num_deleted":"0","num_feature":"4","num_nodes":"31","size_leaf_vector":"1"}},{"base_weights":[-1.6731894E-5,-8.3770186E-1,2.7408862E-1,-1.2828245E0,-6.654084E-1,-4.3465474E-1,5.4512894E-1,-1.2345899E0,-1.3802173E0,7.719476E-1,-9.2367786E-1,-1.9099677E-1,-1.290292E0,2.6048467E0,1.7321742E-1,-3.235693E-1,-3.791447E-1,-4.291001E-1,-3.838376E-1,1.6426791E-1,2.451014E-1,-5.143302E-1,-2.1404122E-1,-1.7575179E-1,3.689889E-1,-3.3360177E-1,-4.0413225E-1,6.5086615E-1,9.854835E-1,2.1399488E-1,-6.724787E-2],"categories":[],"categories_nodes":[],"categories_segments":[],"categories_sizes":[],"default_left":[0,0,0,0,0,0,0,0,0,0,0,0,0,0,0,0,0,0,0,0,0,0,0,0,0,0,0,0,0,0,0],"id":3,"left_children":[1,3,5,7,9,11,13,15,17,19,21,23,25,27,29,-1,-1,-1,-1,-1,-1,-1,-1,-1,-1,-1,-1,-1,-1,-1,-1],"loss_changes":[7.1423716E3,5.872954E2,4.5024385E3,8.344238E0,2.0539597E3,1.3515563E3,1.2986869E4,5.203125E0,1.7047119E0,8.075562E0,7.781946E2,2.8329275E3,1.3058105E1,7.605117E2,3.0825728E3,0E0,0E0,0E0,0E0,0E0,0E0,0E0,0E0,0E0,0E0,0E0,0E0,0E0,0E0,0E0,0E0],"parents":[2147483647,0,0,1,1,2,2,3,3,4,4,5,5,6,6,7,7,8,8,9,9,10,10,11,11,12,12,13,13,14,14],"right_children":[2,4,6,8,10,12,14,16,18,20,22,24,26,28,30,-1,-1,-1,-1,-1,-1,-1,-1,-1,-1,-1,-1,-1,-1,-1,-1],"split_conditions":[6E0,3E0,3E0,5E0,4E0,2E1,4E0,1E0,2E0,1E0,5E0,1.7E1,2.1E1,1.7E1,6E0,-3.235693E-1,-3.791447E-1,-4.291001E-1,-3.838376E-1,1.6426791E-1,2.451014E-1,-5.143302E-1,-2.1404122E-1,-1.7575179E-1,3.689889E-1,-3.3360177E-1,-4.0413225E-1,6.5086615E-1,9.854835E-1,2.1399488E-1,-6.724787E-2],"split_indices":[1,0,0,2,0,1,0,1,0,1,0,1,1,1,0,0,0,0,0,0,0,0,0,0,0,0,0,0,0,0,0],"split_type":[0,0,0,0,0,0,0,0,0,0,0,0,0,0,0,0,0,0,0,0,0,0,0,0,0,0,0,0,0,0,0],"sum_hessian":[3.1104E4,7.668E3,2.3436E4,2.138E3,5.53E3,6.483E3,1.6953E4,1.439E3,6.99E2,8.42E2,4.688E3,5.047E3,1.436E3,2.592E3,1.4361E4,2.33E2,1.206E3,4.58E2,2.41E2,1.43E2,6.99E2,9.83E2,3.705E3,3.95E3,1.097E3,3.52E2,1.084E3,1.583E3,1.009E3,6.087E3,8.274E3],"tree_param":{"num_deleted":"0","num_feature":"4","num_nodes":"31","size_leaf_vector":"1"}},{"base_weights":[-3.0911822E-5,-5.3410226E-1,2.1726923E-1,-3.6910868E-1,-8.3312166E-1,1.3640516E0,-2.8027577E-2,-6.447477E-1,7.433385E-1,-8.8351226E-1,-5.402227E-1,1.1312542E0,1.6110462E0,-4.8489252E-1,4.283391E-1,-1.3587122E-1,-3.6716092E-1,1.7088926E-1,5.1691526E-1,-2.5936207E-1,-2.926118E-1,-1.0259716E-1,-1.7114393E-1,4.1197538E-1,1.2405497E-1,8.8341403E-1,3.3539048E-1,-2.9016513E-1,-9.042736E-2,5.1015687E-1,-1.6008079E-1],"categories":[],"categories_nodes":[],"categories_segments":[],"categories_sizes":[],"default_left":[0,0,0,0,0,0,0,0,0,0,0,0,0,0,0,0,0,0,0,0,0,0,0,0,0,0,0,0,0,0,0],"id":4,"left_children":[1,3,5,7,9,11,13,15,17,19,21,23,25,27,29,-1,-1,-1,-1,-1,-1,-1,-1,-1,-1,-1,-1,-1,-1,-1,-1],"loss_changes":[3.6099692E3,4.4352148E2,6.219626E3,1.7786492E3,4.6723145E1,2.221958E2,3.7979973E3,5.158425E2,1.9506995E2,3.9091797E0,2.63591E0,3.4837598E2,1.2382612E3,8.052429E2,1.1153092E4,0E0,0E0,0E0,0E0,0E0,0E0,0E0,0E0,0E0,0E0,0E0,0E0,0E0,0E0,0E0,0E0],"parents":[2147483647,0,0,1,1,2,2,3,3,4,4,5,5,6,6,7,7,8,8,9,9,10,10,11,11,12,12,13,13,14,14],"right_children":[2,4,6,8,10,12,14,16,18,20,22,24,26,28,30,-1,-1,-1,-1,-1,-1,-1,-1,-1,-1,-1,-1,-1,-1,-1,-1],"split_conditions":[7E0,6E0,1E1,5E0,6E0,5E0,1.7E1,4E0,6E0,6E0,1E0,4E0,6E0,3E0,2E1,-1.3587122E-1,-3.6716092E-1,1.7088926E-1,5.1691526E-1,-2.5936207E-1,-2.926118E-1,-1.0259716E-1,-1.7114393E-1,4.1197538E-1,1.2405497E-1,8.8341403E-1,3.3539048E-1,-2.9016513E-1,-9.042736E-2,5.1015687E-1,-1.6008079E-1],"split_indices":[1,0,1,0,1,0,1,0,1,2,2,0,0,0,1,0,0,0,0,0,0,0,0,0,0,0,0,0,0,0,0],"split_type":[0,0,0,0,0,0,0,0,0,0,0,0,0,0,0,0,0,0,0,0,0,0,0,0,0,0,0,0,0,0,0],"sum_hessian":[3.1104E4,8.995E3,2.2109E4,5.798E3,3.197E3,3.895E3,1.8214E4,4.647E3,1.151E3,2.726E3,4.71E2,2.008E3,1.887E3,9.102E3,9.112E3,3.492E3,1.155E3,9.79E2,1.72E2,2.268E3,4.58E2,6.4E1,4.07E2,1.501E3,5.07E2,5.08E2,1.379E3,2.507E3,6.595E3,3.923E3,5.189E3],"tree_param":{"num_deleted":"0","num_feature":"4","num_nodes":"31","size_leaf_vector":"1"}},{"base_weights":[1.3204024E-5,-4.1770384E-1,1.6019627E-1,-7.342636E-1,-2.8802094E-1,1.4886364E0,-7.9349756E-2,-7.628781E-1,-5.654877E-1,5.741316E-1,-4.723321E-1,7.3993796E-1,1.7906283E0,-8.3752024E-1,1.2445015E-1,-2.0930693E-1,-2.4164733E-1,-1.846537E-1,-7.923955E-2,2.1806587E-1,1.49626E-1,-2.0315027E-1,-8.0823585E-2,2.0296773E-1,3.295089E-1,4.551228E-1,6.534987E-1,-1.5217413E-1,-3.205577E-1,4.0131012E-1,-9.550718E-2],"categories":[],"categories_nodes":[],"categories_segments":[],"categories_sizes":[],"default_left":[0,0,0,0,0,0,0,0,0,0,0,0,0,0,0,0,0,0,0,0,0,0,0,0,0,0,0,0,0,0,0],"id":5,"left_children":[1,3,5,7,9,11,13,15,17,19,21,23,25,27,29,-1,-1,-1,-1,-1,-1,-1,-1,-1,-1,-1,-1,-1,-1,-1,-1],"loss_changes":[2.0813398E3,3.537423E2,7.155034E3,1.166626E1,9.724478E2,7.7533154E2,2.9436165E3,5.379883E0,5.3700256E0,1.2049957E1,2.093479E2,2.1723633E1,2.5621582E2,3.0738403E2,8.0670273E3,0E0,0E0,0E0,0E0,0E0,0E0,0E0,0E0,0E0,0E0,0E0,0E0,0E0,0E0,0E0,0E0],"parents":[2147483647,0,0,1,1,2,2,3,3,4,4,5,5,6,6,7,7,8,8,9,9,10,10,11,11,12,12,13,13,14,14],"right_children":[2,4,6,8,10,12,14,16,18,20,22,24,26,28,30,-1,-1,-1,-1,-1,-1,-1,-1,-1,-1,-1,-1,-1,-1,-1,-1],"split_conditions":[3E0,7E0,4E0,6E0,1E1,7E0,5E0,3E0,6E0,8E0,1.7E1,6E0,1.7E1,1E1,6E0,-2.0930693E-1,-2.4164733E-1,-1.846537E-1,-7.923955E-2,2.1806587E-1,1.49626E-1,-2.0315027E-1,-8.0823585E-2,2.0296773E-1,3.295089E-1,4.551228E-1,6.534987E-1,-1.5217413E-1,-3.205577E-1,4.0131012E-1,-9.550718E-2],"split_indices":[0,1,0,1,1,1,0,2,2,1,1,1,1,1,0,0,0,0,0,0,0,0,0,0,0,0,0,0,0,0,0],"split_type":[0,0,0,0,0,0,0,0,0,0,0,0,0,0,0,0,0,0,0,0,0,0,0,0,0,0,0,0,0,0,0],"sum_hessian":[3.1104E4,8.621E3,2.2483E4,2.504E3,6.117E3,3.434E3,1.9049E4,2.138E3,3.66E2,1.077E3,5.04E3,9.88E2,2.446E3,4.035E3,1.5014E4,8.52E2,1.286E3,3.13E2,5.3E1,3.53E2,7.24E2,2.507E3,2.533E3,8.42E2,1.46E2,1.437E3,1.009E3,1.662E3,2.373E3,4.014E3,1.1E4],"tree_param":{"num_deleted":"0","num_feature":"4","num_nodes":"31","size_leaf_vector":"1"}},{"base_weights":[3.6343783E-5,-3.3489585E-1,1.3631178E-1,-2.5042385E-1,-4.8796603E-1,8.5947347E-1,-1.8372491E-2,-5.142698E-1,-4.976081E-2,-5.231888E-1,-2.8343096E-1,4.0223342E-1,1.0340195E0,-3.1050774E-1,2.7344424E-1,-1.6026765E-1,-1.18968114E-1,1.5554848E-1,-8.8004336E-2,-1.4342155E-1,-1.6618738E-1,-1.108216E-1,-6.710349E-2,1.0923005E-1,1.7602272E-1,4.4637328E-1,2.8591302E-1,-2.5037523E-2,-1.3609323E-1,3.5056767E-1,-1.2101316E-1],"categories":[],"categories_nodes":[],"categories_segments":[],"categories_sizes":[],"default_left":[0,0,0,0,0,0,0,0,0,0,0,0,0,0,0,0,0,0,0,0,0,0,0,0,0,0,0,0,0,0,0],"id":6,"left_children":[1,3,5,7,9,11,13,15,17,19,21,23,25,27,29,-1,-1,-1,-1,-1,-1,-1,-1,-1,-1,-1,-1,-1,-1,-1,-1],"loss_changes":[1.4197723E3,1.1619733E2,2.473279E3,3.0699747E2,2.2891113E1,3.1052148E2,1.5529128E3,5.6723022E0,4.5624493E2,3.520813E0,2.342125E0,7.3710938E0,1.0219238E2,2.9580066E2,5.5214243E3,0E0,0E0,0E0,0E0,0E0,0E0,0E0,0E0,0E0,0E0,0E0,0E0,0E0,0E0,0E0,0E0],"parents":[2147483647,0,0,1,1,2,2,3,3,4,4,5,5,6,6,7,7,8,8,9,9,10,10,11,11,12,12,13,13,14,14],"right_children":[2,4,6,8,10,12,14,16,18,20,22,24,26,28,30,-1,-1,-1,-1,-1,-1,-1,-1,-1,-1,-1,-1,-1,-1,-1,-1],"split_conditions":[7E0,6E0,1E1,3E0,6E0,3E0,1.7E1,6E0,4E0,2E0,2E0,6E0,4E0,4E0,2E1,-1.6026765E-1,-1.18968114E-1,1.5554848E-1,-8.8004336E-2,-1.4342155E-1,-1.6618738E-1,-1.108216E-1,-6.710349E-2,1.0923005E-1,1.7602272E-1,4.4637328E-1,2.8591302E-1,-2.5037523E-2,-1.3609323E-1,3.5056767E-1,-1.2101316E-1],"split_indices":[1,0,1,0,1,0,1,1,0,3,3,2,0,0,1,0,0,0,0,0,0,0,0,0,0,0,0,0,0,0,0],"split_type":[0,0,0,0,0,0,0,0,0,0,0,0,0,0,0,0,0,0,0,0,0,0,0,0,0,0,0,0,0,0,0],"sum_hessian":[3.1104E4,8.995E3,2.2109E4,5.798E3,3.197E3,3.895E3,1.8214E4,2.504E3,3.294E3,2.726E3,4.71E2,1.077E3,2.818E3,9.102E3,9.112E3,2.138E3,3.66E2,9.88E2,2.306E3,1.112E3,1.614E3,1.91E2,2.8E2,8.95E2,1.82E2,4.24E2,2.394E3,3.52E3,5.582E3,3.923E3,5.189E3],"tree_param":{"num_deleted":"0","num_feature":"4","num_nodes":"31","size_leaf_vector":"1"}},{"base_weights":[3.7816393E-5,-2.79897E-1,1.0738517E-1,-2.2743435E-1,-5.42052E-1,9.2726815E-1,-4.0457625E-2,-2.832173E-1,8.2119234E-2,-4.184567E-1,-5.8176357E-1,3.631036E-1,1.1549066E0,-5.8175504E-1,1.0504466E-1,-5.3843327E-2,-1.4179468E-1,-1.3659843E-2,6.691917E-2,-1.752956E-2,-1.4985283E-1,-2.1530437E-1,-1.4711957E-1,9.554039E-2,1.8498158E-1,2.8448766E-1,4.3437994E-1,-2.0745204E-1,-9.369573E-2,2.8309703E-1,-6.0309142E-2],"categories":[],"categories_nodes":[],"categories_segments":[],"categories_sizes":[],"default_left":[0,0,0,0,0,0,0,0,0,0,0,0,0,0,0,0,0,0,0,0,0,0,0,0,0,0,0,0,0,0,0],"id":7,"left_children":[1,3,5,7,9,11,13,15,17,19,21,23,25,27,29,-1,-1,-1,-1,-1,-1,-1,-1,-1,-1,-1,-1,-1,-1,-1,-1],"loss_changes":[9.3474347E2,1.1845807E2,2.7254082E3,1.2410974E2,6.8095703E0,4.407229E2,1.5004395E3,1.19573456E2,1.9765232E1,1.0271706E1,1.3121735E1,1.09943695E1,1.4677686E2,1.19132935E2,3.8542144E3,0E0,0E0,0E0,0E0,0E0,0E0,0E0,0E0,0E0,0E0,0E0,0E0,0E0,0E0,0E0,0E0],"parents":[2147483647,0,0,1,1,2,2,3,3,4,4,5,5,6,6,7,7,8,8,9,9,10,10,11,11,12,12,13,13,14,14],"right_children":[2,4,6,8,10,12,14,16,18,20,22,24,26,28,30,-1,-1,-1,-1,-1,-1,-1,-1,-1,-1,-1,-1,-1,-1,-1,-1],"split_conditions":[3E0,2E1,4E0,1.7E1,2.1E1,7E0,5E0,1.1E1,4E0,1E0,2E0,6E0,1.7E1,1.7E1,6E0,-5.3843327E-2,-1.4179468E-1,-1.3659843E-2,6.691917E-2,-1.752956E-2,-1.4985283E-1,-2.1530437E-1,-1.4711957E-1,9.554039E-2,1.8498158E-1,2.8448766E-1,4.3437994E-1,-2.0745204E-1,-9.369573E-2,2.8309703E-1,-6.0309142E-2],"split_indices":[0,1,0,1,1,1,0,1,2,3,3,1,1,1,0,0,0,0,0,0,0,0,0,0,0,0,0,0,0,0,0],"split_type":[0,0,0,0,0,0,0,0,0,0,0,0,0,0,0,0,0,0,0,0,0,0,0,0,0,0,0,0,0,0,0],"sum_hessian":[3.1104E4,8.621E3,2.2483E4,7.185E3,1.436E3,3.434E3,1.9049E4,6.088E3,1.097E3,3.52E2,1.084E3,9.88E2,2.446E3,4.035E3,1.5014E4,3.935E3,2.153E3,5.76E2,5.21E2,6.5E1,2.87E2,4.33E2,6.51E2,8.42E2,1.46E2,1.437E3,1.009E3,2.866E3,1.169E3,4.014E3,1.1E4],"tree_param":{"num_deleted":"0","num_feature":"4","num_nodes":"31","size_leaf_vector":"1"}},{"base_weights":[3.4441375E-5,-2.4839675E-1,8.132551E-2,-1.6669425E-1,-3.002856E-1,1.8705761E-1,-2.9044342E-1,-3.2021454E-1,2.2304076E-1,-3.8666323E-1,-2.7727E-1,2.9350188E-2,7.627385E-1,-6.648776E-2,-6.9987386E-1,-8.778512E-2,-1.1295874E-1,1.2471166E-1,5.8159027E-2,-8.5993044E-2,-1.7520466E-1,-5.9063468E-2,-9.1817595E-2,1.2959002E-1,-6.0498327E-2,1.7259585E-2,3.1091082E-1,-9.0757616E-2,2.5731477E-1,-1.5599234E-1,-2.2266708E-1],"categories":[],"categories_nodes":[],"categories_segments":[],"categories_sizes":[],"default_left":[0,0,0,0,0,0,0,0,0,0,0,0,0,0,0,0,0,0,0,0,0,0,0,0,0,0,0,0,0,0,0],"id":8,"left_children":[1,3,5,7,9,11,13,15,17,19,21,23,25,27,29,-1,-1,-1,-1,-1,-1,-1,-1,-1,-1,-1,-1,-1,-1,-1,-1],"loss_changes":[6.2819305E2,3.246228E1,9.2131396E2,1.784313E2,9.214691E0,1.6566982E3,4.758467E2,3.2141113E0,4.658287E0,1.925589E1,8.516815E0,1.3324404E3,7.5713965E2,7.323602E2,1.3594299E1,0E0,0E0,0E0,0E0,0E0,0E0,0E0,0E0,0E0,0E0,0E0,0E0,0E0,0E0,0E0,0E0],"parents":[2147483647,0,0,1,1,2,2,3,3,4,4,5,5,6,6,7,7,8,8,9,9,10,10,11,11,12,12,13,13,14,14],"right_children":[2,4,6,8,10,12,14,16,18,20,22,24,26,28,30,-1,-1,-1,-1,-1,-1,-1,-1,-1,-1,-1,-1,-1,-1,-1,-1],"split_conditions":[6E0,4E0,2E1,3E0,5E0,1.7E1,6E0,5E0,1E0,4E0,6E0,1E1,3E0,5E0,1E0,-8.778512E-2,-1.1295874E-1,1.2471166E-1,5.8159027E-2,-8.5993044E-2,-1.7520466E-1,-5.9063468E-2,-9.1817595E-2,1.2959002E-1,-6.0498327E-2,1.7259585E-2,3.1091082E-1,-9.0757616E-2,2.5731477E-1,-1.5599234E-1,-2.2266708E-1],"split_indices":[1,0,1,0,0,1,0,2,2,1,0,1,0,0,3,0,0,0,0,0,0,0,0,0,0,0,0,0,0,0,0],"split_type":[0,0,0,0,0,0,0,0,0,0,0,0,0,0,0,0,0,0,0,0,0,0,0,0,0,0,0,0,0,0,0],"sum_hessian":[3.1104E4,7.668E3,2.3436E4,2.98E3,4.688E3,1.8247E4,5.189E3,2.138E3,8.42E2,9.83E2,3.705E3,1.4324E4,3.923E3,3.355E3,1.834E3,1.439E3,6.99E2,1.09E2,7.33E2,6.54E2,3.29E2,9.79E2,2.726E3,5.222E3,9.102E3,1.097E3,2.826E3,2.673E3,6.82E2,3.52E2,1.482E3],"tree_param":{"num_deleted":"0","num_feature":"4","num_nodes":"31","size_leaf_vector":"1"}},{"base_weights":[1.6212574E-5,-1.7525263E-1,7.132867E-2,-2.4326412E-1,-1.4898275E-1,4.6768934E-1,-1.3452687E-2,-2.2424401E-1,-3.534569E-1,1.7847614E-1,-2.0779595E-1,3.029385E-1,6.4275116E-1,9.839826E-2,-2.1871667E-1,-5.261385E-2,-7.4535236E-2,-1.4514038E-1,-7.833829E-2,9.015505E-2,3.0353362E-2,-9.9165305E-2,-5.253566E-2,1.5300551E-1,7.290291E-2,2.8958547E-1,1.5699658E-1,-2.4349567E-2,2.4525751E-1,-3.3057366E-2,-1.4703543E-1],"categories":[],"categories_nodes":[],"categories_segments":[],"categories_sizes":[],"default_left":[0,0,0,0,0,0,0,0,0,0,0,0,0,0,0,0,0,0,0,0,0,0,0,0,0,0,0,0,0,0,0],"id":9,"left_children":[1,3,5,7,9,11,13,15,17,19,21,23,25,27,29,-1,-1,-1,-1,-1,-1,-1,-1,-1,-1,-1,-1,-1,-1,-1,-1],"loss_changes":[3.887893E2,1.6036499E1,7.4299066E2,5.1709137E0,1.2506592E2,1.1217206E2,4.1821918E2,2.4865494E0,4.290367E0,9.299358E0,2.2020187E1,2.480783E1,7.222052E1,1.5226252E3,1.8918774E2,0E0,0E0,0E0,0E0,0E0,0E0,0E0,0E0,0E0,0E0,0E0,0E0,0E0,0E0,0E0,0E0],"parents":[2147483647,0,0,1,1,2,2,3,3,4,4,5,5,6,6,7,7,8,8,9,9,10,10,11,11,12,12,13,13,14,14],"right_children":[2,4,6,8,10,12,14,16,18,20,22,24,26,28,30,-1,-1,-1,-1,-1,-1,-1,-1,-1,-1,-1,-1,-1,-1,-1,-1],"split_conditions":[7E0,3E0,1E1,6E0,4E0,5E0,6E0,2E0,3E0,2E0,5E0,1E0,6E0,5E0,2E1,-5.261385E-2,-7.4535236E-2,-1.4514038E-1,-7.833829E-2,9.015505E-2,3.0353362E-2,-9.9165305E-2,-5.253566E-2,1.5300551E-1,7.290291E-2,2.8958547E-1,1.5699658E-1,-2.4349567E-2,2.4525751E-1,-3.3057366E-2,-1.4703543E-1],"split_indices":[1,0,1,1,0,0,0,1,2,3,0,3,0,0,1,0,0,0,0,0,0,0,0,0,0,0,0,0,0,0,0],"split_type":[0,0,0,0,0,0,0,0,0,0,0,0,0,0,0,0,0,0,0,0,0,0,0,0,0,0,0,0,0,0,0],"sum_hessian":[3.1104E4,8.995E3,2.2109E4,2.504E3,6.491E3,3.895E3,1.8214E4,2.138E3,3.66E2,9.88E2,5.503E3,2.008E3,1.887E3,1.179E4,6.424E3,7.11E2,1.427E3,1.5E2,2.16E2,3.82E2,6.06E2,1.155E3,4.348E3,4.49E2,1.559E3,5.08E2,1.379E3,9.435E3,2.355E3,4.59E3,1.834E3],"tree_param":{"num_deleted":"0","num_feature":"4","num_nodes":"31","size_leaf_vector":"1"}},{"base_weights":[2.2001792E-5,-1.3925922E-1,5.3432543E-2,-1.1717393E-1,-2.9256758E-1,5.9397835E-1,-4.403876E-2,-1.4635484E-1,5.446576E-3,-3.880311E-1,-2.2857413E-1,2.0185663E-1,8.2333165E-1,-3.766916E-1,4.5380544E-2,-2.5288349E-2,-7.047988E-2,1.9384677E-2,-5.358389E-2,-1.57601E-1,-3.7369147E-2,-9.972667E-2,-5.2255932E-2,3.75165E-2,1.4143416E-1,2.7279025E-1,1.7678794E-1,-3.5190728E-2,-1.6747095E-1,1.2720202E-1,-2.784287E-2],"categories":[],"categories_nodes":[],"categories_segments":[],"categories_sizes":[],"default_left":[0,0,0,0,0,0,0,0,0,0,0,0,0,0,0,0,0,0,0,0,0,0,0,0,0,0,0,0,0,0,0],"id":10,"left_children":[1,3,5,7,9,11,13,15,17,19,21,23,25,27,29,-1,-1,-1,-1,-1,-1,-1,-1,-1,-1,-1,-1,-1,-1,-1,-1],"loss_changes":[2.3140018E2,2.91586E1,1.1846566E3,2.6973091E1,6.539612E0,3.0875842E2,5.6667053E2,3.345256E1,1.580294E1,1.5634735E1,3.6246338E0,2.621568E1,4.3064453E1,1.8999286E2,7.8566E2,0E0,0E0,0E0,0E0,0E0,0E0,0E0,0E0,0E0,0E0,0E0,0E0,0E0,0E0,0E0,0E0],"parents":[2147483647,0,0,1,1,2,2,3,3,4,4,5,5,6,6,7,7,8,8,9,9,10,10,11,11,12,12,13,13,14,14],"right_children":[2,4,6,8,10,12,14,16,18,20,22,24,26,28,30,-1,-1,-1,-1,-1,-1,-1,-1,-1,-1,-1,-1,-1,-1,-1,-1],"split_conditions":[3E0,2.1E1,4E0,1.7E1,2E0,9E0,5E0,1E1,2E1,2.3E1,2.2E1,7E0,2E1,1E1,6E0,-2.5288349E-2,-7.047988E-2,1.9384677E-2,-5.358389E-2,-1.57601E-1,-3.7369147E-2,-9.972667E-2,-5.2255932E-2,3.75165E-2,1.4143416E-1,2.7279025E-1,1.7678794E-1,-3.5190728E-2,-1.6747095E-1,1.2720202E-1,-2.784287E-2],"split_indices":[0,1,0,1,3,1,0,1,1,1,1,1,1,1,0,0,0,0,0,0,0,0,0,0,0,0,0,0,0,0,0],"split_type":[0,0,0,0,0,0,0,0,0,0,0,0,0,0,0,0,0,0,0,0,0,0,0,0,0,0,0,0,0,0,0],"sum_hessian":[3.1104E4,8.621E3,2.2483E4,7.537E3,1.084E3,3.434E3,1.9049E4,6.088E3,1.449E3,4.33E2,6.51E2,1.268E3,2.166E3,4.035E3,1.5014E4,3.581E3,2.507E3,1.097E3,3.52E2,2.84E2,1.49E2,2.22E2,4.29E2,9.88E2,2.8E2,1.582E3,5.84E2,1.662E3,2.373E3,4.014E3,1.1E4],"tree_param":{"num_deleted":"0","num_feature":"4","num_nodes":"31","size_leaf_vector":"1"}},{"base_weights":[1.694405E-5,-5.425859E-2,1.3100363E-1,9.436686E-3,-1.444532E-1,5.0906575E-1,-1.548628E-1,-1.2166273E-1,3.1214738E-1,8.36513E-3,-2.4080442E-1,4.5248378E-2,6.8903124E-1,-6.7073196E-2,-3.153353E-1,-2.3788653E-2,-4.4558432E-2,5.860272E-2,1.308819E-1,-4.9344346E-2,1.3076106E-1,-1.9793394E-1,-3.7637115E-2,-2.3773708E-4,8.1741124E-2,3.053699E-1,1.056427E-1,-4.2791136E-2,6.8659164E-2,-5.701242E-2,-1.0348395E-1],"categories":[],"categories_nodes":[],"categories_segments":[],"categories_sizes":[],"default_left":[0,0,0,0,0,0,0,0,0,0,0,0,0,0,0,0,0,0,0,0,0,0,0,0,0,0,0,0,0,0,0],"id":11,"left_children":[1,3,5,7,9,11,13,15,17,19,21,23,25,27,29,-1,-1,-1,-1,-1,-1,-1,-1,-1,-1,-1,-1,-1,-1,-1,-1],"loss_changes":[2.2114415E2,1.2635051E2,9.849688E2,5.1161987E2,1.3403667E2,3.2750952E2,7.309461E1,1.022757E1,5.640085E1,2.6024774E2,2.697309E2,1.1486935E1,3.1285083E2,7.508007E1,6.7424927E0,0E0,0E0,0E0,0E0,0E0,0E0,0E0,0E0,0E0,0E0,0E0,0E0,0E0,0E0,0E0,0E0],"parents":[2147483647,0,0,1,1,2,2,3,3,4,4,5,5,6,6,7,7,8,8,9,9,10,10,11,11,12,12,13,13,14,14],"right_children":[2,4,6,8,10,12,14,16,18,20,22,24,26,28,30,-1,-1,-1,-1,-1,-1,-1,-1,-1,-1,-1,-1,-1,-1,-1,-1],"split_conditions":[1.7E1,1E1,2E1,7E0,4E0,3E0,6E0,4E0,5E0,3E0,5E0,6E0,6E0,5E0,1E0,-2.3788653E-2,-4.4558432E-2,5.860272E-2,1.308819E-1,-4.9344346E-2,1.3076106E-1,-1.9793394E-1,-3.7637115E-2,-2.3773708E-4,8.1741124E-2,3.053699E-1,1.056427E-1,-4.2791136E-2,6.8659164E-2,-5.701242E-2,-1.0348395E-1],"split_indices":[1,1,1,1,0,0,0,0,0,0,0,2,0,0,3,0,0,0,0,0,0,0,0,0,0,0,0,0,0,0,0],"split_type":[0,0,0,0,0,0,0,0,0,0,0,0,0,0,0,0,0,0,0,0,0,0,0,0,0,0,0,0,0,0,0],"sum_hessian":[3.1104E4,2.1992E4,9.112E3,1.289E4,9.102E3,3.923E3,5.189E3,8.995E3,3.895E3,3.52E3,5.582E3,1.097E3,2.826E3,3.355E3,1.834E3,3.492E3,5.503E3,2.008E3,1.887E3,2.507E3,1.013E3,1.204E3,4.378E3,9.13E2,1.84E2,1.429E3,1.397E3,2.673E3,6.82E2,3.52E2,1.482E3],"tree_param":{"num_deleted":"0","num_feature":"4","num_nodes":"31","size_leaf_vector":"1"}},{"base_weights":[2.2297161E-5,-3.7982505E-2,9.174177E-2,6.615072E-3,-1.01134144E-1,3.5647145E-1,-1.08429916E-1,-8.517151E-2,2.185518E-1,5.8786552E-3,-1.686052E-1,3.1748228E-2,4.824671E-1,3.0276958E-2,-1.9682682E-1,-1.9807637E-2,-3.6933493E-2,4.1030657E-2,9.163811E-2,-3.454696E-2,9.15714E-2,-1.3860305E-1,-2.6348522E-2,-1.3179739E-2,3.460264E-2,2.138229E-1,7.397253E-2,-4.2858623E-2,1.3665771E-1,-1.505599E-1,-3.524677E-2],"categories":[],"categories_nodes":[],"categories_segments":[],"categories_sizes":[],"default_left":[0,0,0,0,0,0,0,0,0,0,0,0,0,0,0,0,0,0,0,0,0,0,0,0,0,0,0,0,0,0,0],"id":12,"left_children":[1,3,5,7,9,11,13,15,17,19,21,23,25,27,29,-1,-1,-1,-1,-1,-1,-1,-1,-1,-1,-1,-1,-1,-1,-1,-1],"loss_changes":[1.0842868E2,6.194197E1,4.8294913E2,2.5078654E2,6.572708E1,1.6053009E2,6.364188E1,6.5266037E0,2.7649582E1,1.2761157E2,1.3227824E2,6.9515014E0,1.5338757E2,1.4886554E2,7.66585E1,0E0,0E0,0E0,0E0,0E0,0E0,0E0,0E0,0E0,0E0,0E0,0E0,0E0,0E0,0E0,0E0],"parents":[2147483647,0,0,1,1,2,2,3,3,4,4,5,5,6,6,7,7,8,8,9,9,10,10,11,11,12,12,13,13,14,14],"right_children":[2,4,6,8,10,12,14,16,18,20,22,24,26,28,30,-1,-1,-1,-1,-1,-1,-1,-1,-1,-1,-1,-1,-1,-1,-1,-1],"split_conditions":[1.7E1,1E1,2E1,7E0,4E0,3E0,4E0,5E0,5E0,3E0,5E0,4E0,6E0,3E0,5E0,-1.9807637E-2,-3.6933493E-2,4.1030657E-2,9.163811E-2,-3.454696E-2,9.15714E-2,-1.3860305E-1,-2.6348522E-2,-1.3179739E-2,3.460264E-2,2.138229E-1,7.397253E-2,-4.2858623E-2,1.3665771E-1,-1.505599E-1,-3.524677E-2],"split_indices":[1,1,1,1,0,0,0,2,0,0,0,2,0,0,0,0,0,0,0,0,0,0,0,0,0,0,0,0,0,0,0],"split_type":[0,0,0,0,0,0,0,0,0,0,0,0,0,0,0,0,0,0,0,0,0,0,0,0,0,0,0,0,0,0,0],"sum_hessian":[3.1104E4,2.1992E4,9.112E3,1.289E4,9.102E3,3.923E3,5.189E3,8.995E3,3.895E3,3.52E3,5.582E3,1.097E3,2.826E3,2.02E3,3.169E3,5.98E3,3.015E3,2.008E3,1.887E3,2.507E3,1.013E3,1.204E3,4.378E3,5.76E2,5.21E2,1.429E3,1.397E3,1.436E3,5.84E2,6.53E2,2.516E3],"tree_param":{"num_deleted":"0","num_feature":"4","num_nodes":"31","size_leaf_vector":"1"}},{"base_weights":[2.1542035E-5,-2.6589217E-2,6.4243026E-2,4.6364227E-3,-7.080575E-2,2.4960868E-1,-7.591864E-2,-5.9626315E-2,1.5302014E-1,-2.2030573E-2,-1.6103446E-1,2.2243287E-2,3.3782855E-1,-1.5927194E-2,-1.8559459E-1,-9.020529E-3,-2.3512138E-2,1.2495822E-2,5.8666E-2,-2.3828467E-2,6.1997715E-2,-5.9899352E-2,-2.8102444E-2,-1.5021672E-3,4.7026597E-2,1.4972082E-1,5.1796593E-2,-2.0977382E-2,5.8650102E-2,-4.3805897E-2,-7.611228E-2],"categories":[],"categories_nodes":[],"categories_segments":[],"categories_sizes":[],"default_left":[0,0,0,0,0,0,0,0,0,0,0,0,0,0,0,0,0,0,0,0,0,0,0,0,0,0,0,0,0,0,0],"id":13,"left_children":[1,3,5,7,9,11,13,15,17,19,21,23,25,27,29,-1,-1,-1,-1,-1,-1,-1,-1,-1,-1,-1,-1,-1,-1,-1,-1],"loss_changes":[5.3159603E1,3.0365837E1,2.3678525E2,1.2293183E2,4.005804E1,7.870062E1,3.4145267E1,4.982645E0,1.8446465E1,7.759252E1,8.292419E0,4.0255275E0,7.520441E1,3.8327576E1,4.909313E0,0E0,0E0,0E0,0E0,0E0,0E0,0E0,0E0,0E0,0E0,0E0,0E0,0E0,0E0,0E0,0E0],"parents":[2147483647,0,0,1,1,2,2,3,3,4,4,5,5,6,6,7,7,8,8,9,9,10,10,11,11,12,12,13,13,14,14],"right_children":[2,4,6,8,10,12,14,16,18,20,22,24,26,28,30,-1,-1,-1,-1,-1,-1,-1,-1,-1,-1,-1,-1,-1,-1,-1,-1],"split_conditions":[1.7E1,1E1,2E1,7E0,6E0,3E0,6E0,4E0,3E0,5E0,8E0,6E0,6E0,5E0,8E0,-9.020529E-3,-2.3512138E-2,1.2495822E-2,5.8666E-2,-2.3828467E-2,6.1997715E-2,-5.9899352E-2,-2.8102444E-2,-1.5021672E-3,4.7026597E-2,1.4972082E-1,5.1796593E-2,-2.0977382E-2,5.8650102E-2,-4.3805897E-2,-7.611228E-2],"split_indices":[1,1,1,1,0,0,0,0,0,0,0,2,0,0,0,0,0,0,0,0,0,0,0,0,0,0,0,0,0,0,0],"split_type":[0,0,0,0,0,0,0,0,0,0,0,0,0,0,0,0,0,0,0,0,0,0,0,0,0,0,0,0,0,0,0],"sum_hessian":[3.1104E4,2.1992E4,9.112E3,1.289E4,9.102E3,3.923E3,5.189E3,8.995E3,3.895E3,5.909E3,3.193E3,1.097E3,2.826E3,3.355E3,1.834E3,3.492E3,5.503E3,1.077E3,2.818E3,4.724E3,1.185E3,2.028E3,1.165E3,9.13E2,1.84E2,1.429E3,1.397E3,2.673E3,6.82E2,1.162E3,6.72E2],"tree_param":{"num_deleted":"0","num_feature":"4","num_nodes":"31","size_leaf_vector":"1"}},{"base_weights":[1.9994512E-5,3.866482E-2,-2.4436807E-2,-4.933535E-2,2.5953785E-1,-2.0021658E-1,2.281405E-2,-8.106854E-2,-1.2783959E-2,1.9290647E-1,4.193281E-1,-6.548793E-2,-2.945104E-1,1.9181232E-1,-3.8866784E-2,2.5641678E-2,-2.653058E-2,-2.8539069E-2,6.0787904E-3,8.636075E-2,3.830505E-2,1.9174571E-1,1.0303589E-1,8.020414E-3,-3.7587017E-2,-8.066363E-2,-1.9014677E-1,-3.56152E-2,8.75958E-2,-6.1871037E-3,-3.899448E-2],"categories":[],"categories_nodes":[],"categories_segments":[],"categories_sizes":[],"default_left":[0,0,0,0,0,0,0,0,0,0,0,0,0,0,0,0,0,0,0,0,0,0,0,0,0,0,0,0,0,0,0],"id":14,"left_children":[1,3,5,7,9,11,13,15,17,19,21,23,25,27,29,-1,-1,-1,-1,-1,-1,-1,-1,-1,-1,-1,-1,-1,-1,-1,-1],"loss_changes":[2.9399178E1,2.3434363E2,1.58229E2,9.999552E0,3.64917E1,5.1254364E1,1.5652313E2,5.6695232E0,1.0908752E1,1.4989281E1,1.6626465E1,9.174976E0,2.0476578E1,1.2492882E2,1.828337E1,0E0,0E0,0E0,0E0,0E0,0E0,0E0,0E0,0E0,0E0,0E0,0E0,0E0,0E0,0E0,0E0],"parents":[2147483647,0,0,1,1,2,2,3,3,4,4,5,5,6,6,7,7,8,8,9,9,10,10,11,11,12,12,13,13,14,14],"right_children":[2,4,6,8,10,12,14,16,18,20,22,24,26,28,30,-1,-1,-1,-1,-1,-1,-1,-1,-1,-1,-1,-1,-1,-1,-1,-1],"split_conditions":[4E0,3E0,5E0,4E0,1.7E1,1E1,6E0,1E0,7E0,2E0,2E0,4E0,2.3E1,6E0,2E1,2.5641678E-2,-2.653058E-2,-2.8539069E-2,6.0787904E-3,8.636075E-2,3.830505E-2,1.9174571E-1,1.0303589E-1,8.020414E-3,-3.7587017E-2,-8.066363E-2,-1.9014677E-1,-3.56152E-2,8.75958E-2,-6.1871037E-3,-3.899448E-2],"split_indices":[0,0,0,2,1,1,0,1,1,3,2,1,1,1,1,0,0,0,0,0,0,0,0,0,0,0,0,0,0,0,0],"split_type":[0,0,0,0,0,0,0,0,0,0,0,0,0,0,0,0,0,0,0,0,0,0,0,0,0,0,0,0,0,0,0],"sum_hessian":[3.1104E4,1.2055E4,1.9049E4,8.621E3,3.434E3,4.035E3,1.5014E4,4.614E3,4.007E3,2.425E3,1.009E3,1.662E3,2.373E3,4.014E3,1.1E4,1.95E2,4.419E3,1.147E3,2.86E3,9.86E2,1.439E3,2.57E2,7.52E2,6.54E2,1.008E3,2.208E3,1.65E2,9.79E2,3.035E3,9.166E3,1.834E3],"tree_param":{"num_deleted":"0","num_feature":"4","num_nodes":"31","size_leaf_vector":"1"}},{"base_weights":[1.7268936E-5,-1.8248374E-2,4.409894E-2,5.2085263E-3,-5.1464308E-2,1.6619128E-1,-4.8219837E-2,-3.5569694E-2,9.936552E-2,1.9341193E-2,-9.610961E-2,5.8998335E-2,2.8199205E-1,1.4062777E-2,-8.791225E-2,-2.2296427E-2,-8.041117E-3,6.45252E-2,2.4549931E-2,-1.3641286E-2,5.388801E-2,-6.573502E-2,-1.867168E-2,3.9490767E-2,-4.6528343E-2,2.1728916E-1,3.8123533E-2,-2.0274254E-2,6.437669E-2,-1.4179773E-2,-6.266219E-2],"categories":[],"categories_nodes":[],"categories_segments":[],"categories_sizes":[],"default_left":[0,0,0,0,0,0,0,0,0,0,0,0,0,0,0,0,0,0,0,0,0,0,0,0,0,0,0,0,0,0,0],"id":15,"left_children":[1,3,5,7,9,11,13,15,17,19,21,23,25,27,29,-1,-1,-1,-1,-1,-1,-1,-1,-1,-1,-1,-1,-1,-1,-1,-1],"loss_changes":[2.504593E1,1.7135958E1,1.0272443E2,4.9499233E1,2.877765E1,4.8692055E1,1.2831679E1,3.053918E0,7.8866997E0,3.658589E1,2.3247017E1,3.1729263E1,1.2913492E2,3.3101673E1,1.5575914E1,0E0,0E0,0E0,0E0,0E0,0E0,0E0,0E0,0E0,0E0,0E0,0E0,0E0,0E0,0E0,0E0],"parents":[2147483647,0,0,1,1,2,2,3,3,4,4,5,5,6,6,7,7,8,8,9,9,10,10,11,11,12,12,13,13,14,14],"right_children":[2,4,6,8,10,12,14,16,18,20,22,24,26,28,30,-1,-1,-1,-1,-1,-1,-1,-1,-1,-1,-1,-1,-1,-1,-1,-1],"split_conditions":[1.7E1,1E1,2E1,7E0,4E0,5E0,4E0,2E0,1E0,3E0,5E0,4E0,6E0,3E0,2.3E1,-2.2296427E-2,-8.041117E-3,6.45252E-2,2.4549931E-2,-1.3641286E-2,5.388801E-2,-6.573502E-2,-1.867168E-2,3.9490767E-2,-4.6528343E-2,2.1728916E-1,3.8123533E-2,-2.0274254E-2,6.437669E-2,-1.4179773E-2,-6.266219E-2],"split_indices":[1,1,1,1,0,0,0,0,2,0,0,0,0,0,1,0,0,0,0,0,0,0,0,0,0,0,0,0,0,0,0],"split_type":[0,0,0,0,0,0,0,0,0,0,0,0,0,0,0,0,0,0,0,0,0,0,0,0,0,0,0,0,0,0,0],"sum_hessian":[3.1104E4,2.1992E4,9.112E3,1.289E4,9.102E3,3.923E3,5.189E3,8.995E3,3.895E3,3.52E3,5.582E3,2.038E3,1.885E3,2.02E3,3.169E3,1.658E3,7.337E3,5.11E2,3.384E3,2.507E3,1.013E3,1.204E3,4.378E3,1.522E3,5.16E2,4.88E2,1.397E3,1.436E3,5.84E2,2.373E3,7.96E2],"tree_param":{"num_deleted":"0","num_feature":"4","num_nodes":"31","size_leaf_vector":"1"}},{"base_weights":[1.949225E-5,-1.2773179E-2,3.0892884E-2,3.6505207E-3,-3.6029816E-2,1.1639722E-1,-3.3760276E-2,-2.4902193E-2,6.95788E-2,1.3550366E-2,-6.7291826E-2,-1.2809666E-2,1.6653968E-1,9.865661E-3,-6.1562877E-2,-5.018079E-3,-1.9782728E-2,3.9856352E-2,1.1450782E-2,-9.55051E-3,3.7737604E-2,-2.7260674E-2,1.4379503E-2,7.0747253E-3,-2.5168896E-2,1.0876171E-1,3.9512835E-2,-1.4196237E-2,4.509665E-2,-5.881176E-2,-7.979105E-3],"categories":[],"categories_nodes":[],"categories_segments":[],"categories_sizes":[],"default_left":[0,0,0,0,0,0,0,0,0,0,0,0,0,0,0,0,0,0,0,0,0,0,0,0,0,0,0,0,0,0,0],"id":16,"left_children":[1,3,5,7,9,11,13,15,17,19,21,23,25,27,29,-1,-1,-1,-1,-1,-1,-1,-1,-1,-1,-1,-1,-1,-1,-1,-1],"loss_changes":[1.2285413E1,8.4005785E0,5.0381737E1,2.4268154E1,1.4110342E1,2.5424755E1,6.2956343E0,3.017187E0,7.7380714E0,1.7940441E1,1.5171326E1,2.842495E0,1.925135E1,1.6240206E1,1.4900382E1,0E0,0E0,0E0,0E0,0E0,0E0,0E0,0E0,0E0,0E0,0E0,0E0,0E0,0E0,0E0,0E0],"parents":[2147483647,0,0,1,1,2,2,3,3,4,4,5,5,6,6,7,7,8,8,9,9,10,10,11,11,12,12,13,13,14,14],"right_children":[2,4,6,8,10,12,14,16,18,20,22,24,26,28,30,-1,-1,-1,-1,-1,-1,-1,-1,-1,-1,-1,-1,-1,-1,-1,-1],"split_conditions":[1.7E1,1E1,2E1,7E0,4E0,3E0,4E0,6E0,8E0,3E0,6E0,1.9E1,4E0,3E0,5E0,-5.018079E-3,-1.9782728E-2,3.9856352E-2,1.1450782E-2,-9.55051E-3,3.7737604E-2,-2.7260674E-2,1.4379503E-2,7.0747253E-3,-2.5168896E-2,1.0876171E-1,3.9512835E-2,-1.4196237E-2,4.509665E-2,-5.881176E-2,-7.979105E-3],"split_indices":[1,1,1,1,0,0,0,2,1,0,2,1,0,0,0,0,0,0,0,0,0,0,0,0,0,0,0,0,0,0,0],"split_type":[0,0,0,0,0,0,0,0,0,0,0,0,0,0,0,0,0,0,0,0,0,0,0,0,0,0,0,0,0,0,0],"sum_hessian":[3.1104E4,2.1992E4,9.112E3,1.289E4,9.102E3,3.923E3,5.189E3,8.995E3,3.895E3,3.52E3,5.582E3,1.097E3,2.826E3,2.02E3,3.169E3,7.502E3,1.493E3,1.291E3,2.604E3,2.507E3,1.013E3,4.634E3,9.48E2,7.26E2,3.71E2,4.25E2,2.401E3,1.436E3,5.84E2,6.53E2,2.516E3],"tree_param":{"num_deleted":"0","num_feature":"4","num_nodes":"31","size_leaf_vector":"1"}},{"base_weights":[1.8061693E-5,1.1989833E-2,-2.1861084E-2,-1.4553165E-2,1.1836378E-1,2.2701172E-3,-3.9048113E-2,1.4665343E-2,-1.0182863E-1,-6.74564E-2,1.7830627E-1,-1.6697617E-2,1.6963719E-1,-1.9084796E-1,-2.7364656E-2,-7.716895E-3,3.4811262E-2,1.0260108E-2,-3.8443074E-2,2.0737961E-2,-3.521764E-2,6.0385875E-2,-6.2365822E-2,1.8689407E-2,-8.689164E-3,1.0710309E-1,2.490977E-2,-8.2921855E-2,-1.2301096E-2,-2.70926E-2,-1.2313867E-3],"categories":[],"categories_nodes":[],"categories_segments":[],"categories_sizes":[],"default_left":[0,0,0,0,0,0,0,0,0,0,0,0,0,0,0,0,0,0,0,0,0,0,0,0,0,0,0,0,0,0,0],"id":17,"left_children":[1,3,5,7,9,11,13,15,17,19,21,23,25,27,29,-1,-1,-1,-1,-1,-1,-1,-1,-1,-1,-1,-1,-1,-1,-1,-1],"loss_changes":[8.14766E0,5.6767853E1,4.562683E0,4.103449E1,4.4733208E1,1.4532859E1,1.1389814E1,4.9363304E1,1.445163E1,6.6920753E0,2.6985397E1,3.9862547E0,7.5323133E0,5.8732376E0,8.735794E0,0E0,0E0,0E0,0E0,0E0,0E0,0E0,0E0,0E0,0E0,0E0,0E0,0E0,0E0,0E0,0E0],"parents":[2147483647,0,0,1,1,2,2,3,3,4,4,5,5,6,6,7,7,8,8,9,9,10,10,11,11,12,12,13,13,14,14],"right_children":[2,4,6,8,10,12,14,16,18,20,22,24,26,28,30,-1,-1,-1,-1,-1,-1,-1,-1,-1,-1,-1,-1,-1,-1,-1,-1],"split_conditions":[6E0,5E0,1E1,4E0,6E0,9E0,1.1E1,3E0,4E0,2E0,2.3E1,1E0,7E0,8E0,2E0,-7.716895E-3,3.4811262E-2,1.0260108E-2,-3.8443074E-2,2.0737961E-2,-3.521764E-2,6.0385875E-2,-6.2365822E-2,1.8689407E-2,-8.689164E-3,1.0710309E-1,2.490977E-2,-8.2921855E-2,-1.2301096E-2,-2.70926E-2,-1.2313867E-3],"split_indices":[0,0,1,0,1,1,1,0,1,2,1,2,0,0,2,0,0,0,0,0,0,0,0,0,0,0,0,0,0,0,0],"split_type":[0,0,0,0,0,0,0,0,0,0,0,0,0,0,0,0,0,0,0,0,0,0,0,0,0,0,0,0,0,0,0],"sum_hessian":[3.1104E4,2.0104E4,1.1E4,1.609E4,4.014E3,4.576E3,6.424E3,1.2055E4,4.035E3,9.79E2,3.035E3,4.111E3,4.65E2,4.58E2,5.966E3,8.621E3,3.434E3,6.54E2,3.381E3,2.62E2,7.17E2,2.865E3,1.7E2,5.52E2,3.559E3,1.46E2,3.19E2,2.91E2,1.67E2,1.609E3,4.357E3],"tree_param":{"num_deleted":"0","num_feature":"4","num_nodes":"31","size_leaf_vector":"1"}},{"base_weights":[1.2688205E-5,-9.218734E-3,2.2291483E-2,1.4948098E-3,-2.4389455E-2,8.0333896E-2,-2.1596901E-2,-1.488678E-2,3.932009E-2,-4.290114E-2,1.2654157E-2,1.7311469E-2,1.4842635E-1,3.4940567E-2,-4.22057E-2,-1.2493945E-2,-2.4756955E-3,2.6993947E-2,4.2537972E-3,-1.8056342E-3,-1.9883959E-2,-2.6049709E-2,1.1550408E-2,1.812709E-2,-3.2917086E-2,1.2232756E-1,1.7282879E-2,-7.0258807E-3,2.7527027E-2,-7.688943E-3,-4.59657E-2],"categories":[],"categories_nodes":[],"categories_segments":[],"categories_sizes":[],"default_left":[0,0,0,0,0,0,0,0,0,0,0,0,0,0,0,0,0,0,0,0,0,0,0,0,0,0,0,0,0,0,0],"id":18,"left_children":[1,3,5,7,9,11,13,15,17,19,21,23,25,27,29,-1,-1,-1,-1,-1,-1,-1,-1,-1,-1,-1,-1,-1,-1,-1,-1],"loss_changes":[6.3974137E0,3.574607E0,2.3216078E1,7.988341E0,6.242831E0,1.6836697E1,6.048703E0,1.5967722E0,4.960765E0,5.233534E0,7.8051167E0,1.1173738E1,4.4395023E1,4.6011667E0,6.9959817E0,0E0,0E0,0E0,0E0,0E0,0E0,0E0,0E0,0E0,0E0,0E0,0E0,0E0,0E0,0E0,0E0],"parents":[2147483647,0,0,1,1,2,2,3,3,4,4,5,5,6,6,7,7,8,8,9,9,10,10,11,11,12,12,13,13,14,14],"right_children":[2,4,6,8,10,12,14,16,18,20,22,24,26,28,30,-1,-1,-1,-1,-1,-1,-1,-1,-1,-1,-1,-1,-1,-1,-1,-1],"split_conditions":[1.7E1,1E1,2E1,7E0,5E0,5E0,2E0,1E0,8E0,4E0,1E0,4E0,6E0,1E0,8E0,-1.2493945E-2,-2.4756955E-3,2.6993947E-2,4.2537972E-3,-1.8056342E-3,-1.9883959E-2,-2.6049709E-2,1.1550408E-2,1.812709E-2,-3.2917086E-2,1.2232756E-1,1.7282879E-2,-7.0258807E-3,2.7527027E-2,-7.688943E-3,-4.59657E-2],"split_indices":[1,1,1,1,2,0,2,3,1,0,3,0,0,2,0,0,0,0,0,0,0,0,0,0,0,0,0,0,0,0,0],"split_type":[0,0,0,0,0,0,0,0,0,0,0,0,0,0,0,0,0,0,0,0,0,0,0,0,0,0,0,0,0,0,0],"sum_hessian":[3.1104E4,2.1992E4,9.112E3,1.289E4,9.102E3,3.923E3,5.189E3,8.995E3,3.895E3,6.069E3,3.033E3,2.038E3,1.885E3,1.386E3,3.803E3,1.786E3,7.209E3,1.291E3,2.604E3,2.355E3,3.714E3,6.25E2,2.408E3,1.522E3,5.16E2,4.88E2,1.397E3,6.84E2,7.02E2,3.31E3,4.93E2],"tree_param":{"num_deleted":"0","num_feature":"4","num_nodes":"31","size_leaf_vector":"1"}},{"base_weights":[1.1196768E-5,-2.0086434E-2,7.718089E-3,-4.3361798E-2,6.7189275E-3,7.9258144E-2,-5.1820586E-3,9.4680704E-2,-4.947333E-2,6.36502E-2,-2.1738572E-2,6.822953E-2,3.3083433E-1,-6.330541E-2,1.0441719E-2,5.9097875E-2,-5.1357683E-2,-1.003227E-2,-2.4477528E-2,3.2738417E-2,-5.7042395E-3,-1.3812306E-2,1.5338583E-2,-3.303972E-2,2.2909239E-2,1.4481378E-1,7.957568E-3,-2.1180357E-3,-3.0016305E-2,2.150816E-2,-3.5742691E-3],"categories":[],"categories_nodes":[],"categories_segments":[],"categories_sizes":[],"default_left":[0,0,0,0,0,0,0,0,0,0,0,0,0,0,0,0,0,0,0,0,0,0,0,0,0,0,0,0,0,0,0],"id":19,"left_children":[1,3,5,7,9,11,13,15,17,19,21,23,25,27,29,-1,-1,-1,-1,-1,-1,-1,-1,-1,-1,-1,-1,-1,-1,-1,-1],"loss_changes":[4.818017E0,5.3795967E0,2.0750385E1,3.8981333E0,6.4948316E0,9.507967E0,1.7300083E1,5.365326E0,2.2732906E0,5.024627E0,4.735838E0,4.784788E0,6.642577E0,8.341524E0,2.056164E1,0E0,0E0,0E0,0E0,0E0,0E0,0E0,0E0,0E0,0E0,0E0,0E0,0E0,0E0,0E0,0E0],"parents":[2147483647,0,0,1,1,2,2,3,3,4,4,5,5,6,6,7,7,8,8,9,9,10,10,11,11,12,12,13,13,14,14],"right_children":[2,4,6,8,10,12,14,16,18,20,22,24,26,28,30,-1,-1,-1,-1,-1,-1,-1,-1,-1,-1,-1,-1,-1,-1,-1,-1],"split_conditions":[3E0,4E0,4E0,1E0,1E0,2.3E1,5E0,3E0,2E0,6E0,1.8E1,1E0,5E0,3E0,6E0,5.9097875E-2,-5.1357683E-2,-1.003227E-2,-2.4477528E-2,3.2738417E-2,-5.7042395E-3,-1.3812306E-2,1.5338583E-2,-3.303972E-2,2.2909239E-2,1.4481378E-1,7.957568E-3,-2.1180357E-3,-3.0016305E-2,2.150816E-2,-3.5742691E-3],"split_indices":[0,2,0,1,0,1,0,2,0,2,1,1,2,2,0,0,0,0,0,0,0,0,0,0,0,0,0,0,0,0,0],"split_type":[0,0,0,0,0,0,0,0,0,0,0,0,0,0,0,0,0,0,0,0,0,0,0,0,0,0,0,0,0,0,0],"sum_hessian":[3.1104E4,8.621E3,2.2483E4,4.614E3,4.007E3,3.434E3,1.9049E4,1.95E2,4.419E3,1.335E3,2.672E3,3.291E3,1.43E2,4.035E3,1.5014E4,1.41E2,5.4E1,2.949E3,1.47E3,8.61E2,4.74E2,2.004E3,6.68E2,1.43E2,3.148E3,9.5E1,4.8E1,1.595E3,2.44E3,4.014E3,1.1E4],"tree_param":{"num_deleted":"0","num_feature":"4","num_nodes":"31","size_leaf_vector":"1"}},{"base_weights":[1.20549275E-5,-7.590209E-3,1.2583483E-2,2.0039352E-3,-2.6634023E-2,3.7596297E-2,-1.890424E-2,-9.455511E-3,2.8463682E-2,6.069202E-3,-4.731964E-2,4.7602537E-4,7.76336E-2,2.1259034E-2,-3.3543453E-2,-8.516569E-3,-5.57523E-4,2.3796966E-2,2.9381716E-3,1.36475945E-2,-5.8686496E-3,-3.8009286E-2,-8.28291E-3,6.5519735E-3,-3.0930845E-2,6.261268E-2,9.129313E-3,-2.3350962E-3,3.2100797E-2,-2.0586483E-2,2.726542E-3],"categories":[],"categories_nodes":[],"categories_segments":[],"categories_sizes":[],"default_left":[0,0,0,0,0,0,0,0,0,0,0,0,0,0,0,0,0,0,0,0,0,0,0,0,0,0,0,0,0,0,0],"id":20,"left_children":[1,3,5,7,9,11,13,15,17,19,21,23,25,27,29,-1,-1,-1,-1,-1,-1,-1,-1,-1,-1,-1,-1,-1,-1,-1,-1],"loss_changes":[2.9728413E0,3.541687E0,9.232917E0,3.9090016E0,4.39339E0,9.709278E0,3.0522184E0,1.2938983E0,3.698616E0,2.5442166E0,6.2202225E0,7.5060143E0,1.943967E1,3.454775E0,5.689313E0,0E0,0E0,0E0,0E0,0E0,0E0,0E0,0E0,0E0,0E0,0E0,0E0,0E0,0E0,0E0,0E0],"parents":[2147483647,0,0,1,1,2,2,3,3,4,4,5,5,6,6,7,7,8,8,9,9,10,10,11,11,12,12,13,13,14,14],"right_children":[2,4,6,8,10,12,14,16,18,20,22,24,26,28,30,-1,-1,-1,-1,-1,-1,-1,-1,-1,-1,-1,-1,-1,-1,-1,-1],"split_conditions":[1.5E1,1E1,2E1,7E0,4E0,5E0,2E0,2E0,2E0,2E0,1.1E1,6E0,6E0,2.3E1,5E0,-8.516569E-3,-5.57523E-4,2.3796966E-2,2.9381716E-3,1.36475945E-2,-5.8686496E-3,-3.8009286E-2,-8.28291E-3,6.5519735E-3,-3.0930845E-2,6.261268E-2,9.129313E-3,-2.3350962E-3,3.2100797E-2,-2.0586483E-2,2.726542E-3],"split_indices":[1,1,1,1,0,0,2,1,2,3,1,2,0,1,2,0,0,0,0,0,0,0,0,0,0,0,0,0,0,0,0],"split_type":[0,0,0,0,0,0,0,0,0,0,0,0,0,0,0,0,0,0,0,0,0,0,0,0,0,0,0,0,0,0,0],"sum_hessian":[3.1104E4,1.9383E4,1.1721E4,1.289E4,6.493E3,6.532E3,5.189E3,8.995E3,3.895E3,2.516E3,3.977E3,3.39E3,3.142E3,1.386E3,3.803E3,2.575E3,6.42E3,1.045E3,2.85E3,9.91E2,1.525E3,7.9E2,3.187E3,2.811E3,5.79E2,8.31E2,2.311E3,1.036E3,3.5E2,2.086E3,1.717E3],"tree_param":{"num_deleted":"0","num_feature":"4","num_nodes":"31","size_leaf_vector":"1"}},{"base_weights":[9.670738E-6,-1.8371621E-2,4.6464326E-3,-5.165398E-2,1.91295E-2,-8.445496E-3,1.8650984E-2,-6.9479044E-3,-1.0082344E-1,9.173184E-2,-2.2611551E-2,3.087826E-2,-1.8661436E-2,6.62326E-2,1.234217E-3,-5.1984858E-2,1.8135265E-2,-1.7996583E-3,-5.6914244E-2,-2.174328E-2,4.1236E-2,-8.314428E-2,1.2978426E-2,1.5116715E-2,-2.0796446E-2,-4.9690355E-4,-2.0626316E-2,-1.6131885E-2,2.9261095E-2,-3.3869192E-2,1.9389692E-3],"categories":[],"categories_nodes":[],"categories_segments":[],"categories_sizes":[],"default_left":[0,0,0,0,0,0,0,0,0,0,0,0,0,0,0,0,0,0,0,0,0,0,0,0,0,0,0,0,0,0,0],"id":21,"left_children":[1,3,5,7,9,11,13,15,17,19,21,23,25,27,29,-1,-1,-1,-1,-1,-1,-1,-1,-1,-1,-1,-1,-1,-1,-1,-1],"loss_changes":[2.6511545E0,7.8217444E0,4.5544868E0,7.2972374E0,8.932951E0,5.158377E0,9.94619E0,1.951722E1,1.3325146E1,8.088462E0,3.1399897E1,5.180269E0,8.681789E0,1.2086789E1,5.2447696E0,0E0,0E0,0E0,0E0,0E0,0E0,0E0,0E0,0E0,0E0,0E0,0E0,0E0,0E0,0E0,0E0],"parents":[2147483647,0,0,1,1,2,2,3,3,4,4,5,5,6,6,7,7,8,8,9,9,10,10,11,11,12,12,13,13,14,14],"right_children":[2,4,6,8,10,12,14,16,18,20,22,24,26,28,30,-1,-1,-1,-1,-1,-1,-1,-1,-1,-1,-1,-1,-1,-1,-1,-1],"split_conditions":[1E0,4E0,5E0,5E0,9E0,5E0,6E0,7E0,2E0,2E0,1.2E1,6E0,4E0,5E0,1E0,-5.1984858E-2,1.8135265E-2,-1.7996583E-3,-5.6914244E-2,-2.174328E-2,4.1236E-2,-8.314428E-2,1.2978426E-2,1.5116715E-2,-2.0796446E-2,-4.9690355E-4,-2.0626316E-2,-1.6131885E-2,2.9261095E-2,-3.3869192E-2,1.9389692E-3],"split_indices":[3,2,0,0,1,1,0,1,2,1,1,2,0,1,1,0,0,0,0,0,0,0,0,0,0,0,0,0,0,0,0],"split_type":[0,0,0,0,0,0,0,0,0,0,0,0,0,0,0,0,0,0,0,0,0,0,0,0,0,0,0,0,0,0,0],"sum_hessian":[3.1104E4,6.265E3,2.4839E4,3.319E3,2.946E3,1.2838E4,1.2001E4,1.739E3,1.58E3,1.075E3,1.871E3,2.647E3,1.0191E4,3.215E3,8.786E3,5.01E2,1.238E3,7.65E2,8.15E2,2.34E2,8.41E2,3.84E2,1.487E3,2.216E3,4.31E2,7.609E3,2.582E3,6.65E2,2.55E3,3.84E2,8.402E3],"tree_param":{"num_deleted":"0","num_feature":"4","num_nodes":"31","size_leaf_vector":"1"}},{"base_weights":[7.084339E-7,-1.5409882E-2,5.9102494E-3,-2.9361533E-2,1.2679169E-2,5.4616682E-2,-2.8725592E-3,-1.3365319E-2,-6.1455518E-2,-1.4875858E-2,6.669328E-2,4.2015105E-2,1.9062126E-1,1.149577E-3,-9.49895E-2,8.387971E-3,-1.2212214E-2,-3.4986336E-2,-7.31051E-3,9.2108715E-3,-1.8526468E-2,3.5660698E-3,7.063682E-2,1.758784E-2,-3.55989E-2,1.3699411E-1,4.5382172E-2,-2.1871424E-3,7.4927737E-3,-6.570549E-2,-1.3743426E-3],"categories":[],"categories_nodes":[],"categories_segments":[],"categories_sizes":[],"default_left":[0,0,0,0,0,0,0,0,0,0,0,0,0,0,0,0,0,0,0,0,0,0,0,0,0,0,0,0,0,0,0],"id":22,"left_children":[1,3,5,7,9,11,13,15,17,19,21,23,25,27,29,-1,-1,-1,-1,-1,-1,-1,-1,-1,-1,-1,-1,-1,-1,-1,-1],"loss_changes":[2.8328083E0,3.3792357E0,9.618346E0,2.9567738E0,4.2606797E0,5.87914E0,7.0582657E0,4.346798E0,3.9171696E0,4.0530567E0,8.941253E0,8.401049E0,2.9769363E0,3.670979E0,8.935947E0,0E0,0E0,0E0,0E0,0E0,0E0,0E0,0E0,0E0,0E0,0E0,0E0,0E0,0E0,0E0,0E0],"parents":[2147483647,0,0,1,1,2,2,3,3,4,4,5,5,6,6,7,7,8,8,9,9,10,10,11,11,12,12,13,13,14,14],"right_children":[2,4,6,8,10,12,14,16,18,20,22,24,26,28,30,-1,-1,-1,-1,-1,-1,-1,-1,-1,-1,-1,-1,-1,-1,-1,-1],"split_conditions":[3E0,5E0,4E0,2E0,2E0,2.2E1,2.3E1,2E0,2E0,1E0,1.8E1,2E1,1E0,1.7E1,6E0,8.387971E-3,-1.2212214E-2,-3.4986336E-2,-7.31051E-3,9.2108715E-3,-1.8526468E-2,3.5660698E-3,7.063682E-2,1.758784E-2,-3.55989E-2,1.3699411E-1,4.5382172E-2,-2.1871424E-3,7.4927737E-3,-6.570549E-2,-1.3743426E-3],"split_indices":[0,2,0,0,0,1,1,3,3,0,1,1,2,1,0,0,0,0,0,0,0,0,0,0,0,0,0,0,0,0,0],"split_type":[0,0,0,0,0,0,0,0,0,0,0,0,0,0,0,0,0,0,0,0,0,0,0,0,0,0,0,0,0,0,0],"sum_hessian":[3.1104E4,8.621E3,2.2483E4,5.76E3,2.861E3,3.434E3,1.9049E4,3.845E3,1.915E3,1.895E3,9.66E2,3.144E3,2.9E2,1.8253E4,7.96E2,1.531E3,2.314E3,7.69E2,1.146E3,9.61E2,9.34E2,7.3E2,2.36E2,2.85E3,2.94E2,3.6E1,2.54E2,1.3479E4,4.774E3,3.35E2,4.61E2],"tree_param":{"num_deleted":"0","num_feature":"4","num_nodes":"31","size_leaf_vector":"1"}},{"base_weights":[4.453353E-6,3.1418542E-3,-1.5662E-2,-2.87795E-3,3.6880493E-2,-8.757306E-3,-6.199147E-2,3.9540594E-3,-1.9138047E-2,-1.2571093E-1,6.109658E-2,-2.8845796E-2,1.1008744E-2,3.821864E-2,-9.837979E-2,1.18763215E-4,1.2680733E-2,-1.2043792E-2,6.8167187E-3,1.1694776E-2,-6.973046E-2,4.44127E-3,3.3383284E-2,7.754974E-3,-2.7306685E-2,-1.2592795E-2,2.1676226E-2,-6.214105E-2,8.09916E-2,-5.6618333E-2,4.7797887E-3],"categories":[],"categories_nodes":[],"categories_segments":[],"categories_sizes":[],"default_left":[0,0,0,0,0,0,0,0,0,0,0,0,0,0,0,0,0,0,0,0,0,0,0,0,0,0,0,0,0,0,0],"id":23,"left_children":[1,3,5,7,9,11,13,15,17,19,21,23,25,27,29,-1,-1,-1,-1,-1,-1,-1,-1,-1,-1,-1,-1,-1,-1,-1,-1],"loss_changes":[1.5289203E0,5.2636456E0,1.65969E0,2.443259E0,1.5457757E1,1.7942803E0,2.457839E0,2.1113558E0,5.723174E0,8.955621E0,7.933709E0,7.6235175E0,7.395297E0,1.0291072E1,5.1049867E0,0E0,0E0,0E0,0E0,0E0,0E0,0E0,0E0,0E0,0E0,0E0,0E0,0E0,0E0,0E0,0E0],"parents":[2147483647,0,0,1,1,2,2,3,3,4,4,5,5,6,6,7,7,8,8,9,9,10,10,11,11,12,12,13,13,14,14],"right_children":[2,4,6,8,10,12,14,16,18,20,22,24,26,28,30,-1,-1,-1,-1,-1,-1,-1,-1,-1,-1,-1,-1,-1,-1,-1,-1],"split_conditions":[2E1,1.7E1,8E0,1.2E1,1E0,2.2E1,2E0,1.1E1,5E0,4E0,5E0,4E0,4E0,1E0,5E0,1.18763215E-4,1.2680733E-2,-1.2043792E-2,6.8167187E-3,1.1694776E-2,-6.973046E-2,4.44127E-3,3.3383284E-2,7.754974E-3,-2.7306685E-2,-1.2592795E-2,2.1676226E-2,-6.214105E-2,8.09916E-2,-5.6618333E-2,4.7797887E-3],"split_indices":[1,1,0,1,2,1,2,1,2,0,0,2,2,2,2,0,0,0,0,0,0,0,0,0,0,0,0,0,0,0,0],"split_type":[0,0,0,0,0,0,0,0,0,0,0,0,0,0,0,0,0,0,0,0,0,0,0,0,0,0,0,0,0,0,0],"sum_hessian":[3.1104E4,2.5915E4,5.189E3,2.1992E4,3.923E3,4.517E3,6.72E2,1.5486E4,6.506E3,5.08E2,3.415E3,2.24E3,2.277E3,1.79E2,4.93E2,1.4171E4,1.315E3,4.332E3,2.174E3,2E2,3.08E2,1.777E3,1.638E3,1.192E3,1.048E3,1.221E3,1.056E3,8.7E1,9.2E1,2.75E2,2.18E2],"tree_param":{"num_deleted":"0","num_feature":"4","num_nodes":"31","size_leaf_vector":"1"}},{"base_weights":[1.3047678E-6,-1.3600642E-2,3.432456E-3,-9.293808E-2,-2.1545624E-3,1.9613784E-2,-2.07179E-3,3.812145E-1,-1.1608225E-1,7.393438E-2,-1.5645046E-2,3.563999E-2,-8.884385E-2,-2.1738661E-2,9.630024E-3,1.8349755E-1,-9.064503E-2,-4.0889796E-2,1.4366968E-1,-1.2194033E-2,3.6303457E-2,-8.461407E-4,-3.1924237E-2,2.4143083E-2,1.2065624E-3,-2.3217187E-3,-7.521768E-2,-3.058093E-3,-3.321815E-2,3.4978185E-2,5.8989436E-4],"categories":[],"categories_nodes":[],"categories_segments":[],"categories_sizes":[],"default_left":[0,0,0,0,0,0,0,0,0,0,0,0,0,0,0,0,0,0,0,0,0,0,0,0,0,0,0,0,0,0,0],"id":24,"left_children":[1,3,5,7,9,11,13,15,17,19,21,23,25,27,29,-1,-1,-1,-1,-1,-1,-1,-1,-1,-1,-1,-1,-1,-1,-1,-1],"loss_changes":[1.4517275E0,5.6899705E0,2.2124403E0,8.713611E0,5.6231694E0,1.0962296E1,4.266049E0,6.011471E0,9.134963E0,4.4550953E0,5.4161406E0,7.788299E0,1.0659117E1,7.103161E0,9.526794E0,0E0,0E0,0E0,0E0,0E0,0E0,0E0,0E0,0E0,0E0,0E0,0E0,0E0,0E0,0E0,0E0],"parents":[2147483647,0,0,1,1,2,2,3,3,4,4,5,5,6,6,7,7,8,8,9,9,10,10,11,11,12,12,13,13,14,14],"right_children":[2,4,6,8,10,12,14,16,18,20,22,24,26,28,30,-1,-1,-1,-1,-1,-1,-1,-1,-1,-1,-1,-1,-1,-1,-1,-1],"split_conditions":[1E0,1E0,2E0,1E0,2E0,8E0,9E0,6E0,2.3E1,7E0,8E0,3E0,1.6E1,8E0,1E1,1.8349755E-1,-9.064503E-2,-4.0889796E-2,1.4366968E-1,-1.2194033E-2,3.6303457E-2,-8.461407E-4,-3.1924237E-2,2.4143083E-2,1.2065624E-3,-2.3217187E-3,-7.521768E-2,-3.058093E-3,-3.321815E-2,3.4978185E-2,5.8989436E-4],"split_indices":[3,2,3,1,2,0,1,0,1,1,0,2,1,1,1,0,0,0,0,0,0,0,0,0,0,0,0,0,0,0,0],"split_type":[0,0,0,0,0,0,0,0,0,0,0,0,0,0,0,0,0,0,0,0,0,0,0,0,0,0,0,0,0,0,0],"sum_hessian":[3.1104E4,6.265E3,2.4839E4,7.89E2,5.476E3,6.304E3,1.8535E4,3.6E1,7.53E2,8.24E2,4.652E3,5.493E3,8.11E2,6.914E3,1.1621E4,2.7E1,9E0,7.29E2,2.4E1,2.4E2,5.84E2,4.077E3,5.75E2,2.271E3,3.222E3,5.41E2,2.7E2,6.121E3,7.93E2,7.76E2,1.0845E4],"tree_param":{"num_deleted":"0","num_feature":"4","num_nodes":"31","size_leaf_vector":"1"}},{"base_weights":[5.2168925E-6,-1.20399995E-2,4.624228E-3,-2.6837043E-2,5.001019E-3,3.694123E-2,-1.2032537E-3,7.822027E-3,-4.42481E-2,3.9722804E-2,-1.2355249E-2,7.7266246E-2,9.560486E-3,1.6682995E-3,-6.697004E-2,-1.9757939E-3,3.3723485E-2,-9.0791024E-2,-8.275691E-3,2.1210494E-2,-4.9737794E-3,-5.6770757E-2,-1.5147876E-3,-6.703757E-2,3.2548662E-2,-6.9475784E-3,2.6111197E-2,-6.009774E-3,2.2524875E-3,-4.913546E-2,1.075706E-3],"categories":[],"categories_nodes":[],"categories_segments":[],"categories_sizes":[],"default_left":[0,0,0,0,0,0,0,0,0,0,0,0,0,0,0,0,0,0,0,0,0,0,0,0,0,0,0,0,0,0,0],"id":25,"left_children":[1,3,5,7,9,11,13,15,17,19,21,23,25,27,29,-1,-1,-1,-1,-1,-1,-1,-1,-1,-1,-1,-1,-1,-1,-1,-1],"loss_changes":[1.7306442E0,2.1742291E0,4.2343826E0,2.7852728E0,2.4158742E0,3.791943E0,3.5977585E0,2.3274362E0,1.3217815E1,2.3313868E0,3.4533145E0,1.3068933E1,5.1911E0,2.3135338E0,5.444768E0,0E0,0E0,0E0,0E0,0E0,0E0,0E0,0E0,0E0,0E0,0E0,0E0,0E0,0E0,0E0,0E0],"parents":[2147483647,0,0,1,1,2,2,3,3,4,4,5,5,6,6,7,7,8,8,9,9,10,10,11,11,12,12,13,13,14,14],"right_children":[2,4,6,8,10,12,14,16,18,20,22,24,26,28,30,-1,-1,-1,-1,-1,-1,-1,-1,-1,-1,-1,-1,-1,-1,-1,-1],"split_conditions":[3E0,4E0,4E0,8E0,1E0,2E0,2.3E1,7E0,9E0,6E0,1E0,2E0,1.7E1,5E0,6E0,-1.9757939E-3,3.3723485E-2,-9.0791024E-2,-8.275691E-3,2.1210494E-2,-4.9737794E-3,-5.6770757E-2,-1.5147876E-3,-6.703757E-2,3.2548662E-2,-6.9475784E-3,2.6111197E-2,-6.009774E-3,2.2524875E-3,-4.913546E-2,1.075706E-3],"split_indices":[0,2,0,1,0,3,1,1,1,2,1,1,1,0,0,0,0,0,0,0,0,0,0,0,0,0,0,0,0,0,0],"split_type":[0,0,0,0,0,0,0,0,0,0,0,0,0,0,0,0,0,0,0,0,0,0,0,0,0,0,0,0,0,0,0],"sum_hessian":[3.1104E4,8.621E3,2.2483E4,4.614E3,4.007E3,3.434E3,1.9049E4,1.543E3,3.071E3,1.335E3,2.672E3,1.388E3,2.046E3,1.8253E4,7.96E2,1.357E3,1.86E2,1.85E2,2.886E3,8.61E2,4.74E2,1.05E2,2.567E3,1.3E2,1.258E3,1.439E3,6.07E2,3.87E3,1.4383E4,3.35E2,4.61E2],"tree_param":{"num_deleted":"0","num_feature":"4","num_nodes":"31","size_leaf_vector":"1"}},{"base_weights":[-2.0591167E-6,2.9430622E-3,-1.1135767E-2,-1.70525E-3,4.2155717E-2,-6.23346E-2,1.5360421E-3,3.8664218E-3,-1.4965858E-2,-5.4168914E-2,6.380783E-2,-2.1715723E-1,-2.1753741E-2,3.9540805E-2,-8.049881E-3,-2.494898E-3,2.5609042E-3,-9.046081E-3,4.589341E-3,5.894953E-2,-3.5500333E-2,3.1542372E-2,-8.934188E-3,-4.6428725E-2,-2.1781199E-1,-2.1343142E-2,4.092723E-2,-5.2606534E-2,2.1259796E-2,3.3940864E-3,-1.2930735E-2],"categories":[],"categories_nodes":[],"categories_segments":[],"categories_sizes":[],"default_left":[0,0,0,0,0,0,0,0,0,0,0,0,0,0,0,0,0,0,0,0,0,0,0,0,0,0,0,0,0,0,0],"id":26,"left_children":[1,3,5,7,9,11,13,15,17,19,21,23,25,27,29,-1,-1,-1,-1,-1,-1,-1,-1,-1,-1,-1,-1,-1,-1,-1,-1],"loss_changes":[1.0199696E0,4.483797E0,4.2217197E0,1.6249833E0,5.440698E0,8.106417E0,1.9009275E0,8.811655E-1,2.9913175E0,7.727585E0,8.238805E0,8.397078E0,8.009618E0,7.087393E0,2.8287988E0,0E0,0E0,0E0,0E0,0E0,0E0,0E0,0E0,0E0,0E0,0E0,0E0,0E0,0E0,0E0,0E0],"parents":[2147483647,0,0,1,1,2,2,3,3,4,4,5,5,6,6,7,7,8,8,9,9,10,10,11,11,12,12,13,13,14,14],"right_children":[2,4,6,8,10,12,14,16,18,20,22,24,26,28,30,-1,-1,-1,-1,-1,-1,-1,-1,-1,-1,-1,-1,-1,-1,-1,-1],"split_conditions":[1.9E1,1.7E1,1E0,1.2E1,2E0,2E1,2E1,3E0,5E0,1E0,7E0,8E0,7E0,1E0,6E0,-2.494898E-3,2.5609042E-3,-9.046081E-3,4.589341E-3,5.894953E-2,-3.5500333E-2,3.1542372E-2,-8.934188E-3,-4.6428725E-2,-2.1781199E-1,-2.1343142E-2,4.092723E-2,-5.2606534E-2,2.1259796E-2,3.3940864E-3,-1.2930735E-2],"split_indices":[1,1,3,1,0,1,1,0,2,3,0,0,0,2,0,0,0,0,0,0,0,0,0,0,0,0,0,0,0,0,0],"split_type":[0,0,0,0,0,0,0,0,0,0,0,0,0,0,0,0,0,0,0,0,0,0,0,0,0,0,0,0,0,0,0],"sum_hessian":[3.1104E4,2.4598E4,6.506E3,2.1992E4,2.606E3,1.29E3,5.216E3,1.5486E4,6.506E3,4.78E2,2.128E3,2.67E2,1.023E3,1.05E3,4.166E3,4.291E3,1.1195E4,4.332E3,2.174E3,9.7E1,3.81E2,1.476E3,6.52E2,2.39E2,2.8E1,7.8E2,2.43E2,1.33E2,9.17E2,2.684E3,1.482E3],"tree_param":{"num_deleted":"0","num_feature":"4","num_nodes":"31","size_leaf_vector":"1"}},{"base_weights":[-9.318882E-6,-8.9575825E-3,2.2479207E-3,3.784632E-3,-4.8436757E-2,-6.114811E-3,1.11936685E-2,-3.8295395E-3,1.1643638E-1,-1.9918452E-1,-2.6251601E-2,2.6518248E-2,-1.459266E-2,-2.5426853E-3,3.8591612E-2,9.242157E-3,-4.784895E-3,-5.80638E-2,5.8908913E-2,-8.365077E-2,1.070353E-1,-1.6030554E-2,2.0165121E-2,-1.3759696E-2,1.2892543E-2,1.1965412E-2,-7.913103E-3,3.7653665E-3,-2.093211E-2,3.3894215E-2,3.6953108E-3],"categories":[],"categories_nodes":[],"categories_segments":[],"categories_sizes":[],"default_left":[0,0,0,0,0,0,0,0,0,0,0,0,0,0,0,0,0,0,0,0,0,0,0,0,0,0,0,0,0,0,0],"id":27,"left_children":[1,3,5,7,9,11,13,15,17,19,21,23,25,27,29,-1,-1,-1,-1,-1,-1,-1,-1,-1,-1,-1,-1,-1,-1,-1,-1],"loss_changes":[6.282906E-1,3.1523077E0,1.858371E0,4.064464E0,5.108301E0,3.5524006E0,4.517025E0,1.8639879E0,7.470762E0,8.779086E0,3.393036E0,3.1563065E0,6.544117E0,8.11403E0,7.8322144E0,0E0,0E0,0E0,0E0,0E0,0E0,0E0,0E0,0E0,0E0,0E0,0E0,0E0,0E0,0E0,0E0],"parents":[2147483647,0,0,1,1,2,2,3,3,4,4,5,5,6,6,7,7,8,8,9,9,10,10,11,11,12,12,13,13,14,14],"right_children":[2,4,6,8,10,12,14,16,18,20,22,24,26,28,30,-1,-1,-1,-1,-1,-1,-1,-1,-1,-1,-1,-1,-1,-1,-1,-1],"split_conditions":[1E0,1.8E1,5E0,1.7E1,1E0,5E0,1.6E1,2E0,2E0,2.3E1,7E0,1E0,1E0,1.3E1,6E0,9.242157E-3,-4.784895E-3,-5.80638E-2,5.8908913E-2,-8.365077E-2,1.070353E-1,-1.6030554E-2,2.0165121E-2,-1.3759696E-2,1.2892543E-2,1.1965412E-2,-7.913103E-3,3.7653665E-3,-2.093211E-2,3.3894215E-2,3.6953108E-3],"split_indices":[3,1,0,1,2,1,1,2,0,1,0,0,0,1,0,0,0,0,0,0,0,0,0,0,0,0,0,0,0,0,0],"split_type":[0,0,0,0,0,0,0,0,0,0,0,0,0,0,0,0,0,0,0,0,0,0,0,0,0,0,0,0,0,0,0],"sum_hessian":[3.1104E4,6.265E3,2.4839E4,4.737E3,1.528E3,1.2838E4,1.2001E4,4.438E3,2.99E2,1.95E2,1.333E3,2.647E3,1.0191E4,7.994E3,4.007E3,1.15E3,3.288E3,6.1E1,2.38E2,1.71E2,2.4E1,1.033E3,3E2,4.9E2,2.157E3,1.812E3,8.379E3,6.529E3,1.465E3,1.045E3,2.962E3],"tree_param":{"num_deleted":"0","num_feature":"4","num_nodes":"31","size_leaf_vector":"1"}},{"base_weights":[-4.7215253E-6,2.079957E-3,-7.885619E-3,-2.0936497E-3,1.7589755E-2,-3.0248396E-2,-2.3502095E-3,8.919273E-3,-9.554543E-3,-1.8264614E-2,4.2323224E-2,-1.3570412E-1,-2.6191194E-3,3.0756043E-2,-1.3594682E-2,1.2397419E-2,-8.5059565E-4,-1.9311876E-3,-1.605531E-2,3.8262007E-3,-2.2963965E-2,1.9672606E-3,2.4136364E-2,1.0069421E-2,-7.612859E-2,4.430599E-2,-1.5874002E-2,3.0356808E-2,-5.7533067E-3,-1.44222295E-2,2.6918338E-3],"categories":[],"categories_nodes":[],"categories_segments":[],"categories_sizes":[],"default_left":[0,0,0,0,0,0,0,0,0,0,0,0,0,0,0,0,0,0,0,0,0,0,0,0,0,0,0,0,0,0,0],"id":28,"left_children":[1,3,5,7,9,11,13,15,17,19,21,23,25,27,29,-1,-1,-1,-1,-1,-1,-1,-1,-1,-1,-1,-1,-1,-1,-1,-1],"loss_changes":[5.1104474E-1,1.5923742E0,8.054117E-1,1.5927955E0,4.626337E0,3.7611861E0,1.9425108E0,2.9822838E0,1.5833379E0,3.8516436E0,4.2095013E0,5.364099E0,7.748753E0,4.6549287E0,3.0311809E0,0E0,0E0,0E0,0E0,0E0,0E0,0E0,0E0,0E0,0E0,0E0,0E0,0E0,0E0,0E0,0E0],"parents":[2147483647,0,0,1,1,2,2,3,3,4,4,5,5,6,6,7,7,8,8,9,9,10,10,11,11,12,12,13,13,14,14],"right_children":[2,4,6,8,10,12,14,16,18,20,22,24,26,28,30,-1,-1,-1,-1,-1,-1,-1,-1,-1,-1,-1,-1,-1,-1,-1,-1],"split_conditions":[1.9E1,1.5E1,1E0,2E0,2E0,2E1,2E0,2E0,1.4E1,6E0,5E0,4E0,2.1E1,2.1E1,2.1E1,1.2397419E-2,-8.5059565E-4,-1.9311876E-3,-1.605531E-2,3.8262007E-3,-2.2963965E-2,1.9672606E-3,2.4136364E-2,1.0069421E-2,-7.612859E-2,4.430599E-2,-1.5874002E-2,3.0356808E-2,-5.7533067E-3,-1.44222295E-2,2.6918338E-3],"split_indices":[1,1,3,3,3,1,3,2,1,0,0,0,1,1,1,0,0,0,0,0,0,0,0,0,0,0,0,0,0,0,0],"split_type":[0,0,0,0,0,0,0,0,0,0,0,0,0,0,0,0,0,0,0,0,0,0,0,0,0,0,0,0,0,0,0],"sum_hessian":[3.1104E4,2.4598E4,6.506E3,1.9383E4,5.215E3,1.29E3,5.216E3,7.828E3,1.1555E4,2.129E3,3.086E3,2.67E2,1.023E3,1.322E3,3.894E3,2.083E3,5.745E3,1.0791E4,7.64E2,1.39E3,7.39E2,1.593E3,1.493E3,1.1E2,1.57E2,2.56E2,7.67E2,5.48E2,7.74E2,1.54E3,2.354E3],"tree_param":{"num_deleted":"0","num_feature":"4","num_nodes":"31","size_leaf_vector":"1"}},{"base_weights":[-4.069295E-6,-6.2183607E-3,2.524369E-3,2.6947043E-3,-2.389171E-2,4.4710502E-2,-9.376888E-5,-7.4924883E-3,4.441304E-2,-2.1117514E-3,-5.3150013E-2,1.3400148E-1,-5.913889E-2,-9.681507E-3,1.9077577E-2,-1.8176455E-2,1.7102029E-3,4.640142E-2,-1.0356818E-2,2.23355E-2,-2.3522343E-2,-4.518614E-2,1.4811514E-2,-3.638836E-2,6.2069323E-2,3.9202716E-2,-5.6026176E-2,-1.3960184E-2,-3.6673373E-4,3.374209E-2,1.6813765E-3],"categories":[],"categories_nodes":[],"categories_segments":[],"categories_sizes":[],"default_left":[0,0,0,0,0,0,0,0,0,0,0,0,0,0,0,0,0,0,0,0,0,0,0,0,0,0,0,0,0,0,0],"id":29,"left_children":[1,3,5,7,9,11,13,15,17,19,21,23,25,27,29,-1,-1,-1,-1,-1,-1,-1,-1,-1,-1,-1,-1,-1,-1,-1,-1],"loss_changes":[4.887515E-1,1.4171476E0,2.442034E0,2.5422144E0,1.9218179E0,1.1988399E1,3.826922E0,3.3683505E0,1.0223046E1,1.0111609E1,1.2868219E1,1.2959133E1,1.4509876E1,4.3265414E0,8.733397E0,0E0,0E0,0E0,0E0,0E0,0E0,0E0,0E0,0E0,0E0,0E0,0E0,0E0,0E0,0E0,0E0],"parents":[2147483647,0,0,1,1,2,2,3,3,4,4,5,5,6,6,7,7,8,8,9,9,10,10,11,11,12,12,13,13,14,14],"right_children":[2,4,6,8,10,12,14,16,18,20,22,24,26,28,30,-1,-1,-1,-1,-1,-1,-1,-1,-1,-1,-1,-1,-1,-1,-1,-1],"split_conditions":[7E0,5E0,8E0,4E0,4E0,4E0,5E0,1E0,2E0,6E0,6E0,1E0,2E0,1.1E1,1E1,-1.8176455E-2,1.7102029E-3,4.640142E-2,-1.0356818E-2,2.23355E-2,-2.3522343E-2,-4.518614E-2,1.4811514E-2,-3.638836E-2,6.2069323E-2,3.9202716E-2,-5.6026176E-2,-1.3960184E-2,-3.6673373E-4,3.374209E-2,1.6813765E-3],"split_indices":[1,2,1,2,1,2,2,3,3,2,2,3,3,1,1,0,0,0,0,0,0,0,0,0,0,0,0,0,0,0,0],"split_type":[0,0,0,0,0,0,0,0,0,0,0,0,0,0,0,0,0,0,0,0,0,0,0,0,0,0,0,0,0,0,0],"sum_hessian":[3.1104E4,8.995E3,2.2109E4,5.98E3,3.015E3,1.291E3,2.0818E4,4.807E3,1.173E3,1.729E3,1.286E3,6.94E2,5.97E2,1.3878E4,6.94E3,9.56E2,3.851E3,4.89E2,6.84E2,8.63E2,8.66E2,6.59E2,6.27E2,1.54E2,5.4E2,2.4E2,3.57E2,2.59E3,1.1288E4,8.74E2,6.066E3],"tree_param":{"num_deleted":"0","num_feature":"4","num_nodes":"31","size_leaf_vector":"1"}},{"base_weights":[-2.2655802E-6,4.6793865E-3,-2.9650999E-3,-4.0888963E-3,2.6686797E-2,-9.956916E-4,-4.8067503E-2,-1.3479213E-2,6.724577E-3,1.9130494E-2,1.0826029E-1,-2.6497213E-2,1.4223785E-3,5.5428647E-2,-8.762483E-2,2.1391628E-2,-5.170753E-3,3.9740666E-4,3.9274223E-2,9.267433E-3,-2.837908E-2,6.372184E-2,1.2572932E-2,1.7187448E-3,-5.4898597E-2,-4.3542897E-3,2.1505083E-3,-6.420529E-2,7.37062E-2,-8.2967944E-2,-1.0748535E-2],"categories":[],"categories_nodes":[],"categories_segments":[],"categories_sizes":[],"default_left":[0,0,0,0,0,0,0,0,0,0,0,0,0,0,0,0,0,0,0,0,0,0,0,0,0,0,0,0,0,0,0],"id":30,"left_children":[1,3,5,7,9,11,13,15,17,19,21,23,25,27,29,-1,-1,-1,-1,-1,-1,-1,-1,-1,-1,-1,-1,-1,-1,-1,-1],"loss_changes":[4.3147007E-1,2.3265216E0,1.6920693E0,8.755853E-1,2.1152425E0,1.1256608E0,3.2678003E0,1.4711276E0,2.687629E0,4.209492E0,2.001946E0,7.9746075E0,1.5269731E0,1.1382033E1,5.6366982E0,0E0,0E0,0E0,0E0,0E0,0E0,0E0,0E0,0E0,0E0,0E0,0E0,0E0,0E0,0E0,0E0],"parents":[2147483647,0,0,1,1,2,2,3,3,4,4,5,5,6,6,7,7,8,8,9,9,10,10,11,11,12,12,13,13,14,14],"right_children":[2,4,6,8,10,12,14,16,18,20,22,24,26,28,30,-1,-1,-1,-1,-1,-1,-1,-1,-1,-1,-1,-1,-1,-1,-1,-1],"split_conditions":[4E0,3E0,2.3E1,4E0,2.2E1,2E0,2E0,1E0,2.3E1,2E1,2E0,6E0,2E0,6E0,1E0,2.1391628E-2,-5.170753E-3,3.9740666E-4,3.9274223E-2,9.267433E-3,-2.837908E-2,6.372184E-2,1.2572932E-2,1.7187448E-3,-5.4898597E-2,-4.3542897E-3,2.1505083E-3,-6.420529E-2,7.37062E-2,-8.2967944E-2,-1.0748535E-2],"split_indices":[0,0,1,2,1,1,2,1,1,1,3,2,2,0,3,0,0,0,0,0,0,0,0,0,0,0,0,0,0,0,0],"split_type":[0,0,0,0,0,0,0,0,0,0,0,0,0,0,0,0,0,0,0,0,0,0,0,0,0,0,0,0,0,0,0],"sum_hessian":[3.1104E4,1.2055E4,1.9049E4,8.621E3,3.434E3,1.8253E4,7.96E2,4.614E3,4.007E3,3.144E3,2.9E2,1.58E3,1.6673E4,2.2E2,5.76E2,1.95E2,4.419E3,3.841E3,1.66E2,2.85E3,2.94E2,1.12E2,1.78E2,1.311E3,2.69E2,4.418E3,1.2255E4,9.1E1,1.29E2,1.23E2,4.53E2],"tree_param":{"num_deleted":"0","num_feature":"4","num_nodes":"31","size_leaf_vector":"1"}},{"base_weights":[-2.4306278E-6,2.2308081E-3,-4.083811E-3,-3.740343E-3,1.4069141E-2,3.66075E-3,-1.9720582E-2,1.3844068E-2,-1.5756624E-2,4.2039515E-3,1.2107045E-1,-1.2995651E-2,1.4861348E-2,8.485589E-3,-3.2647572E-2,1.7326018E-2,-4.5774514E-3,1.2995147E-2,-7.816262E-3,3.964979E-3,-2.611517E-2,-1.9307666E-2,5.8130223E-2,5.9104883E-3,-2.1555249E-2,-4.808535E-3,1.9981338E-2,-6.95868E-3,6.9257766E-2,-5.512397E-3,-5.7429366E-2],"categories":[],"categories_nodes":[],"categories_segments":[],"categories_sizes":[],"default_left":[0,0,0,0,0,0,0,0,0,0,0,0,0,0,0,0,0,0,0,0,0,0,0,0,0,0,0,0,0,0,0],"id":31,"left_children":[1,3,5,7,9,11,13,15,17,19,21,23,25,27,29,-1,-1,-1,-1,-1,-1,-1,-1,-1,-1,-1,-1,-1,-1,-1,-1],"loss_changes":[2.8352174E-1,1.4212444E0,1.3322926E0,2.8242323E0,7.1152115E0,1.3729136E0,1.3289558E0,6.9345474E0,4.8311653E0,5.0781E0,7.6826744E0,5.695727E0,7.033738E0,8.078996E0,5.6599817E0,0E0,0E0,0E0,0E0,0E0,0E0,0E0,0E0,0E0,0E0,0E0,0E0,0E0,0E0,0E0,0E0],"parents":[2147483647,0,0,1,1,2,2,3,3,4,4,5,5,6,6,7,7,8,8,9,9,10,10,11,11,12,12,13,13,14,14],"right_children":[2,4,6,8,10,12,14,16,18,20,22,24,26,28,30,-1,-1,-1,-1,-1,-1,-1,-1,-1,-1,-1,-1,-1,-1,-1,-1],"split_conditions":[6E0,5E0,5E0,2E0,2.2E1,2E0,7E0,2E0,1E0,2E1,2E0,8E0,8E0,2.1E1,2.2E1,1.7326018E-2,-4.5774514E-3,1.2995147E-2,-7.816262E-3,3.964979E-3,-2.611517E-2,-1.9307666E-2,5.8130223E-2,5.9104883E-3,-2.1555249E-2,-4.808535E-3,1.9981338E-2,-6.95868E-3,6.9257766E-2,-5.512397E-3,-5.7429366E-2],"split_indices":[0,2,2,3,1,3,0,2,0,1,0,0,0,1,1,0,0,0,0,0,0,0,0,0,0,0,0,0,0,0,0],"split_type":[0,0,0,0,0,0,0,0,0,0,0,0,0,0,0,0,0,0,0,0,0,0,0,0,0,0,0,0,0,0,0],"sum_hessian":[3.1104E4,2.0104E4,1.1E4,1.3364E4,6.74E3,7.357E3,3.643E3,5.425E3,7.939E3,6.172E3,5.68E2,2.958E3,4.399E3,1.145E3,2.498E3,2.162E3,3.263E3,1.178E3,6.761E3,5.618E3,5.54E2,1.6E2,4.08E2,1.902E3,1.056E3,2.755E3,1.644E3,1.003E3,1.42E2,2.293E3,2.05E2],"tree_param":{"num_deleted":"0","num_feature":"4","num_nodes":"31","size_leaf_vector":"1"}},{"base_weights":[-6.1475663E-7,1.2014835E-3,-8.396173E-3,-7.46577E-4,9.412004E-3,-2.8014792E-2,4.3981606E-3,1.6306911E-3,-6.4044846E-3,3.5305787E-2,-7.7764774E-3,-6.6019654E-2,8.878855E-2,-8.1389226E-2,2.389098E-2,-1.887601E-4,7.789865E-3,-1.1162091E-2,4.123304E-4,5.2433122E-2,-3.0161128E-3,-2.1435967E-2,4.1062664E-3,-6.1827274E-3,-9.704663E-2,1.1850117E-1,5.0050085E-3,3.996228E-3,-5.404338E-2,1.4526641E-2,-1.0370635E-2],"categories":[],"categories_nodes":[],"categories_segments":[],"categories_sizes":[],"default_left":[0,0,0,0,0,0,0,0,0,0,0,0,0,0,0,0,0,0,0,0,0,0,0,0,0,0,0,0,0,0,0],"id":32,"left_children":[1,3,5,7,9,11,13,15,17,19,21,23,25,27,29,-1,-1,-1,-1,-1,-1,-1,-1,-1,-1,-1,-1,-1,-1,-1,-1],"loss_changes":[3.139307E-1,4.3521985E-1,9.780472E-1,2.9582426E-1,2.3226748E0,6.83319E0,3.946754E0,8.5173386E-1,1.5591936E0,1.317321E1,4.2885027E0,1.3567532E1,8.3395405E0,4.0897126E0,2.7594204E0,0E0,0E0,0E0,0E0,0E0,0E0,0E0,0E0,0E0,0E0,0E0,0E0,0E0,0E0,0E0,0E0],"parents":[2147483647,0,0,1,1,2,2,3,3,4,4,5,5,6,6,7,7,8,8,9,9,10,10,11,11,12,12,13,13,14,14],"right_children":[2,4,6,8,10,12,14,16,18,20,22,24,26,28,30,-1,-1,-1,-1,-1,-1,-1,-1,-1,-1,-1,-1,-1,-1,-1,-1],"split_conditions":[2.1E1,1.7E1,3E0,1.2E1,3E0,7E0,2E0,1.1E1,1.3E1,1.8E1,1.8E1,6E0,1E0,1E0,7E0,-1.887601E-4,7.789865E-3,-1.1162091E-2,4.123304E-4,5.2433122E-2,-3.0161128E-3,-2.1435967E-2,4.1062664E-3,-6.1827274E-3,-9.704663E-2,1.1850117E-1,5.0050085E-3,3.996228E-3,-5.404338E-2,1.4526641E-2,-1.0370635E-2],"split_indices":[1,1,2,1,2,0,0,1,1,1,1,0,3,0,0,0,0,0,0,0,0,0,0,0,0,0,0,0,0,0,0],"split_type":[0,0,0,0,0,0,0,0,0,0,0,0,0,0,0,0,0,0,0,0,0,0,0,0,0,0,0,0,0,0,0],"sum_hessian":[3.1104E4,2.7209E4,3.895E3,2.1992E4,5.217E3,1.537E3,2.358E3,1.5486E4,6.506E3,2.081E3,3.136E3,1.16E3,3.77E2,4.36E2,1.922E3,1.4171E4,1.315E3,1.311E3,5.195E3,5.1E2,1.571E3,7.9E2,2.346E3,9.87E2,1.73E2,7.1E1,3.06E2,2.23E2,2.13E2,1.354E3,5.68E2],"tree_param":{"num_deleted":"0","num_feature":"4","num_nodes":"31","size_leaf_vector":"1"}},{"base_weights":[-3.0813715E-7,-2.388625E-3,2.5591594E-3,2.558998E-3,-1.7167157E-2,-1.0754343E-2,1.1421252E-2,-3.3744206E-3,1.7451392E-2,2.2571722E-2,-4.314261E-2,3.4365855E-2,-3.2913815E-2,-3.401715E-2,2.6413772E-2,-4.0228493E-3,2.519679E-3,1.5438947E-2,1.513387E-3,-2.5365286E-2,2.0006686E-2,2.7380278E-2,-2.0647027E-2,5.7162037E-3,2.3036316E-2,-2.246261E-2,-1.022079E-4,-3.036412E-2,-4.5187646E-3,2.484931E-2,1.5948758E-3],"categories":[],"categories_nodes":[],"categories_segments":[],"categories_sizes":[],"default_left":[0,0,0,0,0,0,0,0,0,0,0,0,0,0,0,0,0,0,0,0,0,0,0,0,0,0,0,0,0,0,0],"id":33,"left_children":[1,3,5,7,9,11,13,15,17,19,21,23,25,27,29,-1,-1,-1,-1,-1,-1,-1,-1,-1,-1,-1,-1,-1,-1,-1,-1],"loss_changes":[1.9014534E-1,1.1765954E0,1.7716751E0,1.065361E0,4.167076E0,6.00117E0,6.1422424E0,1.0187715E0,1.4492282E0,7.5482645E0,8.432034E0,1.282711E0,5.501419E0,2.8477075E0,8.068361E0,0E0,0E0,0E0,0E0,0E0,0E0,0E0,0E0,0E0,0E0,0E0,0E0,0E0,0E0,0E0,0E0],"parents":[2147483647,0,0,1,1,2,2,3,3,4,4,5,5,6,6,7,7,8,8,9,9,10,10,11,11,12,12,13,13,14,14],"right_children":[2,4,6,8,10,12,14,16,18,20,22,24,26,28,30,-1,-1,-1,-1,-1,-1,-1,-1,-1,-1,-1,-1,-1,-1,-1,-1],"split_conditions":[5E0,4E0,3E0,3E0,3E0,8E0,6E0,1.3E1,2E0,7E0,4E0,8E0,1.5E1,4E0,6E0,-4.0228493E-3,2.519679E-3,1.5438947E-2,1.513387E-3,-2.5365286E-2,2.0006686E-2,2.7380278E-2,-2.0647027E-2,5.7162037E-3,2.3036316E-2,-2.246261E-2,-1.022079E-4,-3.036412E-2,-4.5187646E-3,2.484931E-2,1.5948758E-3],"split_indices":[0,0,2,0,2,1,1,1,2,1,1,0,1,2,0,0,0,0,0,0,0,0,0,0,0,0,0,0,0,0,0],"split_type":[0,0,0,0,0,0,0,0,0,0,0,0,0,0,0,0,0,0,0,0,0,0,0,0,0,0,0,0,0,0,0],"sum_hessian":[3.1104E4,1.609E4,1.5014E4,1.2055E4,4.035E3,6E3,9.014E3,8.621E3,3.434E3,1.595E3,2.44E3,1.976E3,4.024E3,2.236E3,6.778E3,4.654E3,3.967E3,9.17E2,2.517E3,4.65E2,1.13E3,3.91E2,2.049E3,1.453E3,5.23E2,1.758E3,2.266E3,4.91E2,1.745E3,1.844E3,4.934E3],"tree_param":{"num_deleted":"0","num_feature":"4","num_nodes":"31","size_leaf_vector":"1"}},{"base_weights":[2.684058E-7,1.8603157E-3,-7.031436E-3,-4.526494E-3,6.110856E-3,8.235416E-3,-1.7108882E-2,3.3832062E-3,-1.4557414E-1,1.972258E-4,1.1132206E-1,2.5668913E-2,-1.0989733E-1,-7.399616E-2,-6.8951404E-4,-9.869349E-4,3.5483994E-2,7.129743E-3,-7.524842E-2,-1.1227589E-2,1.4710291E-3,-6.305298E-5,5.427448E-2,3.1780913E-2,-8.693249E-3,-8.428459E-2,3.3292316E-3,-5.832723E-2,1.5203176E-3,-5.1110014E-3,3.2971732E-2],"categories":[],"categories_nodes":[],"categories_segments":[],"categories_sizes":[],"default_left":[0,0,0,0,0,0,0,0,0,0,0,0,0,0,0,0,0,0,0,0,0,0,0,0,0,0,0,0,0,0,0],"id":34,"left_children":[1,3,5,7,9,11,13,15,17,19,21,23,25,27,29,-1,-1,-1,-1,-1,-1,-1,-1,-1,-1,-1,-1,-1,-1,-1,-1],"loss_changes":[4.068448E-1,6.6782635E-1,1.0012485E0,1.09672785E1,9.189578E0,5.332721E0,3.6614366E0,7.137645E0,9.309929E0,2.4763572E0,6.10085E0,9.898626E0,6.89499E0,8.360863E0,5.5033684E0,0E0,0E0,0E0,0E0,0E0,0E0,0E0,0E0,0E0,0E0,0E0,0E0,0E0,0E0,0E0,0E0],"parents":[2147483647,0,0,1,1,2,2,3,3,4,4,5,5,6,6,7,7,8,8,9,9,10,10,11,11,12,12,13,13,14,14],"right_children":[2,4,6,8,10,12,14,16,18,20,22,24,26,28,30,-1,-1,-1,-1,-1,-1,-1,-1,-1,-1,-1,-1,-1,-1,-1,-1],"split_conditions":[1.9E1,3E0,3E0,1.8E1,1.8E1,8E0,4E0,1.7E1,4E0,2E0,2E0,2.1E1,2.1E1,2.1E1,8E0,-9.869349E-4,3.5483994E-2,7.129743E-3,-7.524842E-2,-1.1227589E-2,1.4710291E-3,-6.305298E-5,5.427448E-2,3.1780913E-2,-8.693249E-3,-8.428459E-2,3.3292316E-3,-5.832723E-2,1.5203176E-3,-5.1110014E-3,3.2971732E-2],"split_indices":[1,2,2,1,1,0,2,1,0,1,3,1,1,1,0,0,0,0,0,0,0,0,0,0,0,0,0,0,0,0,0],"split_type":[0,0,0,0,0,0,0,0,0,0,0,0,0,0,0,0,0,0,0,0,0,0,0,0,0,0,0,0,0,0,0],"sum_hessian":[3.1104E4,2.4598E4,6.506E3,9.829E3,1.4769E4,2.587E3,3.919E3,9.308E3,5.21E2,1.3984E4,7.85E2,2.255E3,3.32E2,8.77E2,3.042E3,8.798E3,5.1E2,2E2,3.21E2,1.554E3,1.243E4,3.02E2,4.83E2,9.13E2,1.342E3,1.37E2,1.95E2,3.47E2,5.3E2,2.651E3,3.91E2],"tree_param":{"num_deleted":"0","num_feature":"4","num_nodes":"31","size_leaf_vector":"1"}},{"base_weights":[-2.2198892E-6,3.6483305E-3,-3.6219184E-3,2.0678425E-3,2.0665828E-2,-2.328742E-2,-1.8183987E-3,4.283385E-3,-2.0211898E-2,-9.277022E-2,6.282833E-2,-8.236274E-2,4.0990494E-2,2.133087E-2,-4.0885964E-3,4.3211025E-4,8.780152E-3,-5.457342E-2,6.5701962E-3,-1.251358E-2,-9.3943864E-2,-1.8953156E-3,3.2922793E-2,1.1017847E-2,-4.9199052E-2,8.432337E-2,5.801665E-4,3.0633105E-2,-2.0272454E-2,-1.0846233E-2,2.3718645E-4],"categories":[],"categories_nodes":[],"categories_segments":[],"categories_sizes":[],"default_left":[0,0,0,0,0,0,0,0,0,0,0,0,0,0,0,0,0,0,0,0,0,0,0,0,0,0,0,0,0,0,0],"id":35,"left_children":[1,3,5,7,9,11,13,15,17,19,21,23,25,27,29,-1,-1,-1,-1,-1,-1,-1,-1,-1,-1,-1,-1,-1,-1,-1,-1],"loss_changes":[4.1103134E-1,4.1649488E-1,5.539186E-1,6.9964075E-1,6.2999244E0,4.9853535E0,7.5202155E-1,9.15597E-1,8.733863E0,4.003909E0,3.1148746E0,6.6556754E0,5.8975883E0,9.185185E0,2.038789E0,0E0,0E0,0E0,0E0,0E0,0E0,0E0,0E0,0E0,0E0,0E0,0E0,0E0,0E0,0E0,0E0],"parents":[2147483647,0,0,1,1,2,2,3,3,4,4,5,5,6,6,7,7,8,8,9,9,10,10,11,11,12,12,13,13,14,14],"right_children":[2,4,6,8,10,12,14,16,18,20,22,24,26,28,30,-1,-1,-1,-1,-1,-1,-1,-1,-1,-1,-1,-1,-1,-1,-1,-1],"split_conditions":[1.2E1,1.1E1,1.3E1,1E1,3E0,5E0,1.4E1,9E0,1E0,6E0,2E0,2E0,1E0,5E0,1E0,4.3211025E-4,8.780152E-3,-5.457342E-2,6.5701962E-3,-1.251358E-2,-9.3943864E-2,-1.8953156E-3,3.2922793E-2,1.1017847E-2,-4.9199052E-2,8.432337E-2,5.801665E-4,3.0633105E-2,-2.0272454E-2,-1.0846233E-2,2.3718645E-4],"split_indices":[1,1,1,1,0,0,1,1,3,2,3,3,2,0,2,0,0,0,0,0,0,0,0,0,0,0,0,0,0,0,0],"split_type":[0,0,0,0,0,0,0,0,0,0,0,0,0,0,0,0,0,0,0,0,0,0,0,0,0,0,0,0,0,0,0],"sum_hessian":[3.1104E4,1.5486E4,1.5618E4,1.4171E4,1.315E3,1.311E3,1.4307E4,1.289E4,1.281E3,3.56E2,9.59E2,6.83E2,6.28E2,1.277E3,1.303E4,1.1574E4,1.316E3,2.64E2,1.017E3,2.9E2,6.6E1,3.88E2,5.71E2,2.78E2,4.05E2,8.7E1,5.41E2,6.69E2,6.08E2,1.72E3,1.131E4],"tree_param":{"num_deleted":"0","num_feature":"4","num_nodes":"31","size_leaf_vector":"1"}},{"base_weights":[-3.7033465E-6,6.1952136E-3,-1.6107741E-3,-1.7779396E-3,6.0416766E-2,-1.8340321E-2,3.512941E-4,6.4183273E-3,-4.2226065E-2,-4.9862538E-2,8.823071E-2,-8.458958E-4,-1.3426413E-1,2.6619527E-2,-1.2788951E-3,-2.9952103E-2,5.8307713E-3,8.0529764E-2,-2.372137E-2,3.7925057E-2,-5.2968126E-2,1.7202953E-2,7.230717E-2,-2.0812811E-2,1.3503174E-2,-5.5948116E-2,4.374383E-2,2.6635848E-2,-1.370265E-2,-1.6720442E-3,2.1925813E-3],"categories":[],"categories_nodes":[],"categories_segments":[],"categories_sizes":[],"default_left":[0,0,0,0,0,0,0,0,0,0,0,0,0,0,0,0,0,0,0,0,0,0,0,0,0,0,0,0,0,0,0],"id":36,"left_children":[1,3,5,7,9,11,13,15,17,19,21,23,25,27,29,-1,-1,-1,-1,-1,-1,-1,-1,-1,-1,-1,-1,-1,-1,-1,-1],"loss_changes":[3.0988103E-1,2.7686636E0,8.108375E-1,1.851499E0,2.5226548E0,5.258543E0,9.4683266E-1,6.4256616E0,1.0792164E1,3.7298017E0,3.082108E0,7.0864315E0,5.000814E0,5.81074E0,7.678402E-1,0E0,0E0,0E0,0E0,0E0,0E0,0E0,0E0,0E0,0E0,0E0,0E0,0E0,0E0,0E0,0E0],"parents":[2147483647,0,0,1,1,2,2,3,3,4,4,5,5,6,6,7,7,8,8,9,9,10,10,11,11,12,12,13,13,14,14],"right_children":[2,4,6,8,10,12,14,16,18,20,22,24,26,28,30,-1,-1,-1,-1,-1,-1,-1,-1,-1,-1,-1,-1,-1,-1,-1,-1],"split_conditions":[5E0,8E0,7E0,6E0,1E0,8E0,8E0,1E0,1E0,2E0,6E0,3E0,6E0,4E0,5E0,-2.9952103E-2,5.8307713E-3,8.0529764E-2,-2.372137E-2,3.7925057E-2,-5.2968126E-2,1.7202953E-2,7.230717E-2,-2.0812811E-2,1.3503174E-2,-5.5948116E-2,4.374383E-2,2.6635848E-2,-1.370265E-2,-1.6720442E-3,2.1925813E-3],"split_indices":[1,0,1,2,1,0,1,0,0,3,2,2,2,2,2,0,0,0,0,0,0,0,0,0,0,0,0,0,0,0,0],"split_type":[0,0,0,0,0,0,0,0,0,0,0,0,0,0,0,0,0,0,0,0,0,0,0,0,0,0,0,0,0,0,0],"sum_hessian":[3.1104E4,6.403E3,2.4701E4,5.583E3,8.2E2,2.592E3,2.2109E4,4.643E3,9.4E2,1.65E2,6.55E2,2.253E3,3.39E2,1.291E3,2.0818E4,5.06E2,4.137E3,9.9E1,8.41E2,6.9E1,9.6E1,5.46E2,1.09E2,9.03E2,1.35E3,2.86E2,5.3E1,6.94E2,5.97E2,1.3878E4,6.94E3],"tree_param":{"num_deleted":"0","num_feature":"4","num_nodes":"31","size_leaf_vector":"1"}},{"base_weights":[7.112949E-7,2.5034125E-3,-2.8547696E-3,-1.7726382E-2,7.569065E-3,3.2952863E-3,-2.21337E-2,-3.725338E-3,-1.2668762E-1,-3.380474E-3,1.9263789E-2,1.5273925E-2,-1.3254384E-2,-5.465947E-2,2.2395931E-2,-4.607607E-3,6.72504E-2,-8.09347E-2,8.8939E-2,9.45085E-3,-6.218962E-3,1.3353345E-3,1.9263517E-2,2.0329426E-3,1.9126467E-2,5.1754685E-3,-1.3584535E-2,6.6239885E-3,-2.9293032E-2,2.0364087E-2,-2.5186477E-2],"categories":[],"categories_nodes":[],"categories_segments":[],"categories_sizes":[],"default_left":[0,0,0,0,0,0,0,0,0,0,0,0,0,0,0,0,0,0,0,0,0,0,0,0,0,0,0,0,0,0,0],"id":37,"left_children":[1,3,5,7,9,11,13,15,17,19,21,23,25,27,29,-1,-1,-1,-1,-1,-1,-1,-1,-1,-1,-1,-1,-1,-1,-1,-1],"loss_changes":[2.222964E-1,1.6988972E0,1.7227256E0,5.0644245E0,1.6977763E0,2.184042E0,5.090763E0,7.805816E0,2.2968132E1,4.1450925E0,4.2681518E0,2.6324334E0,4.520504E0,6.7015414E0,7.184253E0,0E0,0E0,0E0,0E0,0E0,0E0,0E0,0E0,0E0,0E0,0E0,0E0,0E0,0E0,0E0,0E0],"parents":[2147483647,0,0,1,1,2,2,3,3,4,4,5,5,6,6,7,7,8,8,9,9,10,10,11,11,12,12,13,13,14,14],"right_children":[2,4,6,8,10,12,14,16,18,20,22,24,26,28,30,-1,-1,-1,-1,-1,-1,-1,-1,-1,-1,-1,-1,-1,-1,-1,-1],"split_conditions":[4E0,1E0,7E0,2.1E1,5E0,1.4E1,1.4E1,2E1,7E0,8E0,3E0,6E0,4E0,5E0,2.1E1,-4.607607E-3,6.72504E-2,-8.09347E-2,8.8939E-2,9.45085E-3,-6.218962E-3,1.3353345E-3,1.9263517E-2,2.0329426E-3,1.9126467E-2,5.1754685E-3,-1.3584535E-2,6.6239885E-3,-2.9293032E-2,2.0364087E-2,-2.5186477E-2],"split_indices":[2,3,0,1,0,1,1,1,0,1,2,0,0,1,1,0,0,0,0,0,0,0,0,0,0,0,0,0,0,0,0],"split_type":[0,0,0,0,0,0,0,0,0,0,0,0,0,0,0,0,0,0,0,0,0,0,0,0,0,0,0,0,0,0,0],"sum_hessian":[3.1104E4,1.6576E4,1.4528E4,3.319E3,1.3257E4,1.1015E4,3.513E3,2.942E3,3.77E2,6.847E3,6.41E3,6.39E3,4.625E3,2.03E3,1.483E3,2.8E3,1.42E2,2.82E2,9.5E1,2.274E3,4.573E3,4.822E3,1.588E3,5.438E3,9.52E2,2.369E3,2.256E3,7.29E2,1.301E3,1.039E3,4.44E2],"tree_param":{"num_deleted":"0","num_feature":"4","num_nodes":"31","size_leaf_vector":"1"}},{"base_weights":[3.0708782E-6,-4.648641E-3,1.8957347E-3,5.7025547E-3,-1.1694243E-2,1.0799911E-2,-8.880388E-6,-8.910147E-3,7.78286E-2,4.3183856E-4,-7.324733E-2,2.0780453E-2,-5.6719504E-2,4.088003E-3,-7.5273775E-3,7.917543E-3,-1.63149E-2,-6.0673673E-2,3.6779795E-2,-1.118446E-2,1.970103E-3,2.3765957E-2,-2.999517E-2,-3.9848723E-4,2.5219439E-2,-8.9656115E-2,-2.826975E-3,5.404214E-3,-2.722462E-4,8.731489E-4,-8.689529E-3],"categories":[],"categories_nodes":[],"categories_segments":[],"categories_sizes":[],"default_left":[0,0,0,0,0,0,0,0,0,0,0,0,0,0,0,0,0,0,0,0,0,0,0,0,0,0,0,0,0,0,0],"id":38,"left_children":[1,3,5,7,9,11,13,15,17,19,21,23,25,27,29,-1,-1,-1,-1,-1,-1,-1,-1,-1,-1,-1,-1,-1,-1,-1,-1],"loss_changes":[2.7386117E-1,6.561487E-1,3.7496418E-1,3.8413105E0,3.9954987E0,2.626617E0,5.610966E-1,4.8670406E0,7.723814E0,1.0351986E0,3.5992718E0,4.7501826E0,5.746108E0,8.202856E-1,1.4377693E0,0E0,0E0,0E0,0E0,0E0,0E0,0E0,0E0,0E0,0E0,0E0,0E0,0E0,0E0,0E0,0E0],"parents":[2147483647,0,0,1,1,2,2,3,3,4,4,5,5,6,6,7,7,8,8,9,9,10,10,11,11,12,12,13,13,14,14],"right_children":[2,4,6,8,10,12,14,16,18,20,22,24,26,28,30,-1,-1,-1,-1,-1,-1,-1,-1,-1,-1,-1,-1,-1,-1,-1,-1],"split_conditions":[7E0,2E0,1E1,6E0,6E0,8E0,6E0,4E0,1E0,1E0,1E0,6E0,1E0,2E0,5E0,7.917543E-3,-1.63149E-2,-6.0673673E-2,3.6779795E-2,-1.118446E-2,1.970103E-3,2.3765957E-2,-2.999517E-2,-3.9848723E-4,2.5219439E-2,-8.9656115E-2,-2.826975E-3,5.404214E-3,-2.722462E-4,8.731489E-4,-8.689529E-3],"split_indices":[1,3,1,2,2,0,0,1,1,1,1,0,3,2,2,0,0,0,0,0,0,0,0,0,0,0,0,0,0,0,0],"split_type":[0,0,0,0,0,0,0,0,0,0,0,0,0,0,0,0,0,0,0,0,0,0,0,0,0,0,0,0,0,0,0],"sum_hessian":[3.1104E4,8.995E3,2.2109E4,3.643E3,5.352E3,3.895E3,1.8214E4,3.03E3,6.13E2,4.472E3,8.8E2,3.394E3,5.01E2,1.179E4,6.424E3,1.706E3,1.324E3,8.4E1,5.29E2,6.25E2,3.847E3,1.31E2,7.49E2,2.516E3,8.78E2,8.1E1,4.2E2,3.112E3,8.678E3,4.321E3,2.103E3],"tree_param":{"num_deleted":"0","num_feature":"4","num_nodes":"31","size_leaf_vector":"1"}},{"base_weights":[-1.6151201E-6,-6.9220056E-4,7.5224657E-3,-2.2999523E-3,1.01446975E-2,1.9180315E-2,-7.106955E-2,5.04356E-3,-7.3252493E-3,4.7520753E-2,-3.6804301E-3,8.737939E-2,8.752748E-3,5.822364E-2,-1.1822525E-1,5.120213E-3,-5.8078975E-3,-9.5275855E-3,4.362376E-4,3.321302E-2,-3.5427943E-2,-1.1702189E-2,1.3949734E-2,-3.5900734E-2,3.7229598E-2,-9.16802E-3,1.2899718E-2,-2.0353718E-2,2.460794E-2,-6.1466254E-2,-2.8253659E-3],"categories":[],"categories_nodes":[],"categories_segments":[],"categories_sizes":[],"default_left":[0,0,0,0,0,0,0,0,0,0,0,0,0,0,0,0,0,0,0,0,0,0,0,0,0,0,0,0,0,0,0],"id":39,"left_children":[1,3,5,7,9,11,13,15,17,19,21,23,25,27,29,-1,-1,-1,-1,-1,-1,-1,-1,-1,-1,-1,-1,-1,-1,-1,-1],"loss_changes":[1.6162743E-1,4.9642327E-1,2.3972626E0,9.156455E-1,1.9022534E0,1.6192358E0,2.067639E0,2.9582956E0,3.1599884E0,1.041531E1,4.7667933E0,2.3108566E0,2.6629863E0,2.786385E-1,2.3365846E0,0E0,0E0,0E0,0E0,0E0,0E0,0E0,0E0,0E0,0E0,0E0,0E0,0E0,0E0,0E0,0E0],"parents":[2147483647,0,0,1,1,2,2,3,3,4,4,5,5,6,6,7,7,8,8,9,9,10,10,11,11,12,12,13,13,14,14],"right_children":[2,4,6,8,10,12,14,16,18,20,22,24,26,28,30,-1,-1,-1,-1,-1,-1,-1,-1,-1,-1,-1,-1,-1,-1,-1,-1],"split_conditions":[2.2E1,8E0,8E0,2E0,2E0,1E0,2E0,5E0,2E0,1.6E1,1.3E1,1E0,4E0,1E0,5E0,5.120213E-3,-5.8078975E-3,-9.5275855E-3,4.362376E-4,3.321302E-2,-3.5427943E-2,-1.1702189E-2,1.3949734E-2,-3.5900734E-2,3.7229598E-2,-9.16802E-3,1.2899718E-2,-2.0353718E-2,2.460794E-2,-6.1466254E-2,-2.8253659E-3],"split_indices":[1,0,0,3,2,2,2,2,2,1,1,3,2,3,2,0,0,0,0,0,0,0,0,0,0,0,0,0,0,0,0],"split_type":[0,0,0,0,0,0,0,0,0,0,0,0,0,0,0,0,0,0,0,0,0,0,0,0,0,0,0,0,0,0,0],"sum_hessian":[3.1104E4,2.849E4,2.614E3,2.481E4,3.68E3,2.277E3,3.37E2,1.008E4,1.473E4,9.93E2,2.687E3,3.01E2,1.976E3,9E1,2.47E2,6.753E3,3.327E3,3.893E3,1.0837E4,7.19E2,2.74E2,1.577E3,1.11E3,4.5E1,2.56E2,9.2E2,1.056E3,1.4E1,7.6E1,1.37E2,1.1E2],"tree_param":{"num_deleted":"0","num_feature":"4","num_nodes":"31","size_leaf_vector":"1"}},{"base_weights":[-3.223405E-6,-4.603884E-3,7.0251053E-4,-5.896517E-2,8.224675E-3,8.315071E-3,-1.2374094E-3,2.3747995E-1,-7.3434E-2,1.8741587E-2,-6.337814E-2,3.1451304E-2,-6.372808E-3,1.681554E-2,-3.0864375E-3,1.24381684E-1,-8.466594E-2,-3.0020785E-2,3.1764112E-2,1.6447293E-4,2.0970223E-2,-5.849072E-2,-4.0219957E-3,-1.0462314E-2,1.5847743E-2,1.6322406E-2,-4.9957973E-3,2.2911862E-3,7.461223E-2,-3.478193E-3,8.7569363E-4],"categories":[],"categories_nodes":[],"categories_segments":[],"categories_sizes":[],"default_left":[0,0,0,0,0,0,0,0,0,0,0,0,0,0,0,0,0,0,0,0,0,0,0,0,0,0,0,0,0,0,0],"id":40,"left_children":[1,3,5,7,9,11,13,15,17,19,21,23,25,27,29,-1,-1,-1,-1,-1,-1,-1,-1,-1,-1,-1,-1,-1,-1,-1,-1],"loss_changes":[1.0099627E-1,2.8855336E0,3.9828196E-1,3.4059203E0,2.5223677E0,1.8614067E0,7.17497E-1,3.5229392E0,3.6117654E0,2.71777E0,2.8184018E0,3.0172446E0,2.09467E0,4.24844E0,9.9616116E-1,0E0,0E0,0E0,0E0,0E0,0E0,0E0,0E0,0E0,0E0,0E0,0E0,0E0,0E0,0E0,0E0],"parents":[2147483647,0,0,1,1,2,2,3,3,4,4,5,5,6,6,7,7,8,8,9,9,10,10,11,11,12,12,13,13,14,14],"right_children":[2,4,6,8,10,12,14,16,18,20,22,24,26,28,30,-1,-1,-1,-1,-1,-1,-1,-1,-1,-1,-1,-1,-1,-1,-1,-1],"split_conditions":[1E0,1E0,1E0,1E0,8E0,4E0,1E0,6E0,8E0,6E0,2E0,1E0,2E0,2.3E1,1E1,1.24381684E-1,-8.466594E-2,-3.0020785E-2,3.1764112E-2,1.6447293E-4,2.0970223E-2,-5.849072E-2,-4.0219957E-3,-1.0462314E-2,1.5847743E-2,1.6322406E-2,-4.9957973E-3,2.2911862E-3,7.461223E-2,-3.478193E-3,8.7569363E-4],"split_indices":[2,3,3,1,0,0,0,0,0,0,3,0,2,1,1,0,0,0,0,0,0,0,0,0,0,0,0,0,0,0,0],"split_type":[0,0,0,0,0,0,0,0,0,0,0,0,0,0,0,0,0,0,0,0,0,0,0,0,0,0,0,0,0,0,0],"sum_hessian":[3.1104E4,4.136E3,2.6968E4,7.89E2,3.347E3,5.476E3,2.1492E4,3.6E1,7.53E2,2.919E3,4.28E2,2.126E3,3.35E3,1.996E3,1.9496E4,2.7E1,9E0,6.56E2,9.7E1,2.154E3,7.65E2,1.17E2,3.11E2,5.18E2,1.608E3,4.84E2,2.866E3,1.921E3,7.5E1,8.067E3,1.1429E4],"tree_param":{"num_deleted":"0","num_feature":"4","num_nodes":"31","size_leaf_vector":"1"}},{"base_weights":[6.8260687E-7,1.9658697E-3,-2.7251833E-3,-2.1799891E-3,2.2625895E-2,2.500931E-3,-2.858259E-2,-2.7880687E-2,4.7159087E-4,-7.068141E-2,3.834877E-2,5.4247435E-2,-2.8440575E-3,8.39725E-2,-5.89546E-2,-2.5012925E-2,2.8569186E-3,3.3416557E-3,-2.014491E-3,1.1772508E-1,-3.476484E-2,-1.9086566E-2,1.9269189E-2,6.316839E-2,4.4728965E-3,-1.3936684E-2,6.1244064E-4,8.449991E-2,-1.7046254E-2,-4.7930367E-2,2.5030784E-3],"categories":[],"categories_nodes":[],"categories_segments":[],"categories_sizes":[],"default_left":[0,0,0,0,0,0,0,0,0,0,0,0,0,0,0,0,0,0,0,0,0,0,0,0,0,0,0,0,0,0,0],"id":41,"left_children":[1,3,5,7,9,11,13,15,17,19,21,23,25,27,29,-1,-1,-1,-1,-1,-1,-1,-1,-1,-1,-1,-1,-1,-1,-1,-1],"loss_changes":[1.6662975E-1,1.5482372E0,1.7609996E0,1.0259731E0,4.434696E0,2.9986064E0,7.494937E0,2.9234476E0,1.046343E0,9.172127E0,6.8290324E0,6.2381372E0,2.0938883E0,1.298664E1,1.171147E1,0E0,0E0,0E0,0E0,0E0,0E0,0E0,0E0,0E0,0E0,0E0,0E0,0E0,0E0,0E0,0E0],"parents":[2147483647,0,0,1,1,2,2,3,3,4,4,5,5,6,6,7,7,8,8,9,9,10,10,11,11,12,12,13,13,14,14],"right_children":[2,4,6,8,10,12,14,16,18,20,22,24,26,28,30,-1,-1,-1,-1,-1,-1,-1,-1,-1,-1,-1,-1,-1,-1,-1,-1],"split_conditions":[1.4E1,6E0,6E0,1E0,2E0,1E0,1E0,2E0,2E0,1E0,1E0,1.6E1,1.5E1,1.8E1,1.8E1,-2.5012925E-2,2.8569186E-3,3.3416557E-3,-2.014491E-3,1.1772508E-1,-3.476484E-2,-1.9086566E-2,1.9269189E-2,6.316839E-2,4.4728965E-3,-1.3936684E-2,6.1244064E-4,8.449991E-2,-1.7046254E-2,-4.7930367E-2,2.5030784E-3],"split_indices":[1,2,2,0,1,0,3,3,3,0,3,1,1,1,1,0,0,0,0,0,0,0,0,0,0,0,0,0,0,0,0],"split_type":[0,0,0,0,0,0,0,0,0,0,0,0,0,0,0,0,0,0,0,0,0,0,0,0,0,0,0,0,0,0,0],"sum_hessian":[3.1104E4,1.8074E4,1.303E4,1.5054E4,3.02E3,1.084E4,2.19E3,1.407E3,1.3647E4,4.35E2,2.585E3,1.014E3,9.826E3,4.65E2,1.725E3,5.66E2,8.41E2,5.493E3,8.154E3,3.8E1,3.97E2,5.23E2,2.062E3,2.03E2,8.11E2,9.89E2,8.837E3,1.93E2,2.72E2,6.9E2,1.035E3],"tree_param":{"num_deleted":"0","num_feature":"4","num_nodes":"31","size_leaf_vector":"1"}},{"base_weights":[4.963487E-6,-3.8068919E-3,1.4667057E-3,3.254959E-2,-7.07854E-3,-1.1967676E-2,2.6817229E-3,-1.5161866E-1,6.149727E-2,-4.8931897E-2,-2.8491195E-3,1.6657411E-3,-7.905803E-2,1.8717587E-2,1.1208311E-3,-2.211278E-2,-9.227061E-2,5.7608046E-2,1.637055E-3,3.9285682E-2,-2.3362974E-2,1.0269929E-2,-2.0607482E-3,-7.3967776E-3,3.0899687E-2,3.0773148E-2,-3.692488E-2,2.3808664E-2,-3.5084109E-3,2.0167625E-3,-1.5786634E-3],"categories":[],"categories_nodes":[],"categories_segments":[],"categories_sizes":[],"default_left":[0,0,0,0,0,0,0,0,0,0,0,0,0,0,0,0,0,0,0,0,0,0,0,0,0,0,0,0,0,0,0],"id":42,"left_children":[1,3,5,7,9,11,13,15,17,19,21,23,25,27,29,-1,-1,-1,-1,-1,-1,-1,-1,-1,-1,-1,-1,-1,-1,-1,-1],"loss_changes":[1.7332108E-1,1.0257795E0,3.670385E-1,3.8051696E0,1.4002298E0,1.7059925E0,5.161027E-1,1.1558769E0,4.5049486E0,3.790254E0,1.0714667E0,4.139458E0,2.5315142E0,3.3742294E0,6.719612E-1,0E0,0E0,0E0,0E0,0E0,0E0,0E0,0E0,0E0,0E0,0E0,0E0,0E0,0E0,0E0,0E0],"parents":[2147483647,0,0,1,1,2,2,3,3,4,4,5,5,6,6,7,7,8,8,9,9,10,10,11,11,12,12,13,13,14,14],"right_children":[2,4,6,8,10,12,14,16,18,20,22,24,26,28,30,-1,-1,-1,-1,-1,-1,-1,-1,-1,-1,-1,-1,-1,-1,-1,-1],"split_conditions":[3E0,2E0,2E0,1E0,4E0,6E0,4E0,2E0,3E0,1E0,6E0,5E0,1E0,5E0,4E0,-2.211278E-2,-9.227061E-2,5.7608046E-2,1.637055E-3,3.9285682E-2,-2.3362974E-2,1.0269929E-2,-2.0607482E-3,-7.3967776E-3,3.0899687E-2,3.0773148E-2,-3.692488E-2,2.3808664E-2,-3.5084109E-3,2.0167625E-3,-1.5786634E-3],"split_indices":[0,1,1,2,1,2,1,0,2,2,1,2,3,0,2,0,0,0,0,0,0,0,0,0,0,0,0,0,0,0,0],"split_type":[0,0,0,0,0,0,0,0,0,0,0,0,0,0,0,0,0,0,0,0,0,0,0,0,0,0,0,0,0,0,0],"sum_hessian":[3.1104E4,8.621E3,2.2483E4,7.11E2,7.91E3,1.864E3,2.0619E4,9.6E1,6.15E2,7.25E2,7.185E3,1.55E3,3.14E2,1.828E3,1.8791E4,6.5E1,3.1E1,1.84E2,4.31E2,1E2,6.25E2,7.02E2,6.483E3,1.231E3,3.19E2,6.1E1,2.53E2,6.1E2,1.218E3,1.0008E4,8.783E3],"tree_param":{"num_deleted":"0","num_feature":"4","num_nodes":"31","size_leaf_vector":"1"}},{"base_weights":[3.720702E-6,-1.6171886E-3,3.2383583E-3,-3.914931E-3,1.3714735E-2,7.8303635E-2,-6.734483E-5,7.814168E-3,-1.1951108E-2,-4.1477747E-2,4.9170505E-2,1.24561794E-1,1.7567672E-3,-2.4751104E-2,1.0626234E-2,-3.21897E-4,2.0115186E-2,-1.0308519E-3,-1.3707947E-2,3.4721384E-3,-6.002264E-2,1.0547252E-2,3.226067E-2,-1.115549E-2,6.5481596E-2,2.9457547E-2,-2.3640512E-2,4.841907E-3,-1.54845E-2,1.2483295E-2,-2.3584776E-3],"categories":[],"categories_nodes":[],"categories_segments":[],"categories_sizes":[],"default_left":[0,0,0,0,0,0,0,0,0,0,0,0,0,0,0,0,0,0,0,0,0,0,0,0,0,0,0,0,0,0,0],"id":43,"left_children":[1,3,5,7,9,11,13,15,17,19,21,23,25,27,29,-1,-1,-1,-1,-1,-1,-1,-1,-1,-1,-1,-1,-1,-1,-1,-1],"loss_changes":[1.6309044E-1,7.3006505E-1,2.5767276E0,1.6987952E0,5.287605E0,1.5507026E0,2.6258504E0,3.8578513E0,3.0726376E0,8.89576E0,1.3416152E0,4.1460643E0,1.2973351E0,3.3039804E0,3.9764137E0,0E0,0E0,0E0,0E0,0E0,0E0,0E0,0E0,0E0,0E0,0E0,0E0,0E0,0E0,0E0,0E0],"parents":[2147483647,0,0,1,1,2,2,3,3,4,4,5,5,6,6,7,7,8,8,9,9,10,10,11,11,12,12,13,13,14,14],"right_children":[2,4,6,8,10,12,14,16,18,20,22,24,26,28,30,-1,-1,-1,-1,-1,-1,-1,-1,-1,-1,-1,-1,-1,-1,-1,-1],"split_conditions":[5E0,8E0,1E0,2E0,2E0,6E0,8E0,7E0,4E0,1.8E1,4E0,2E0,2E0,2E0,1.4E1,-3.21897E-4,2.0115186E-2,-1.0308519E-3,-1.3707947E-2,3.4721384E-3,-6.002264E-2,1.0547252E-2,3.226067E-2,-1.115549E-2,6.5481596E-2,2.9457547E-2,-2.3640512E-2,4.841907E-3,-1.54845E-2,1.2483295E-2,-2.3584776E-3],"split_indices":[2,0,1,3,3,0,1,0,2,1,2,3,3,3,1,0,0,0,0,0,0,0,0,0,0,0,0,0,0,0,0],"split_type":[0,0,0,0,0,0,0,0,0,0,0,0,0,0,0,0,0,0,0,0,0,0,0,0,0,0,0,0,0,0,0],"sum_hessian":[3.1104E4,2.0721E4,1.0383E4,1.8021E4,2.7E3,4.37E2,9.946E3,7.327E3,1.0694E4,1.056E3,1.644E3,2.72E2,1.65E2,3.006E3,6.94E3,6.372E3,9.55E2,8.54E3,2.154E3,7.92E2,2.64E2,1.327E3,3.17E2,1E2,1.72E2,7.5E1,9E1,1.192E3,1.814E3,2.593E3,4.347E3],"tree_param":{"num_deleted":"0","num_feature":"4","num_nodes":"31","size_leaf_vector":"1"}},{"base_weights":[4.259104E-6,1.1110298E-3,-3.466448E-3,-2.0178298E-3,7.340041E-3,2.331834E-2,-1.0361318E-2,9.551873E-3,-7.7501447E-3,1.0337696E-3,7.62686E-2,-2.369368E-3,1.2524818E-1,-4.78383E-2,-3.006383E-4,-1.3824373E-2,7.195929E-3,-6.8955836E-3,2.2633853E-3,2.0167655E-3,-1.6958864E-2,6.823384E-3,5.7818495E-2,1.2443112E-2,-9.847014E-3,8.830344E-2,2.2683986E-2,1.6457437E-2,-2.172315E-2,-1.2993608E-2,3.1587954E-3],"categories":[],"categories_nodes":[],"categories_segments":[],"categories_sizes":[],"default_left":[0,0,0,0,0,0,0,0,0,0,0,0,0,0,0,0,0,0,0,0,0,0,0,0,0,0,0,0,0,0,0],"id":44,"left_children":[1,3,5,7,9,11,13,15,17,19,21,23,25,27,29,-1,-1,-1,-1,-1,-1,-1,-1,-1,-1,-1,-1,-1,-1,-1,-1],"loss_changes":[1.19486764E-1,4.596794E-1,1.3892019E0,1.0413166E0,3.427825E0,4.032546E0,2.2554622E0,4.1785154E0,2.446627E0,2.3666432E0,4.115886E0,1.6451145E0,2.5796032E0,3.1986935E0,2.1976886E0,0E0,0E0,0E0,0E0,0E0,0E0,0E0,0E0,0E0,0E0,0E0,0E0,0E0,0E0,0E0,0E0],"parents":[2147483647,0,0,1,1,2,2,3,3,4,4,5,5,6,6,7,7,8,8,9,9,10,10,11,11,12,12,13,13,14,14],"right_children":[2,4,6,8,10,12,14,16,18,20,22,24,26,28,30,-1,-1,-1,-1,-1,-1,-1,-1,-1,-1,-1,-1,-1,-1,-1,-1],"split_conditions":[7E0,5E0,5E0,8E0,2.2E1,4E0,9E0,1E0,1.6E1,2E1,5E0,2E0,1E0,1E0,1E0,-1.3824373E-2,7.195929E-3,-6.8955836E-3,2.2633853E-3,2.0167655E-3,-1.6958864E-2,6.823384E-3,5.7818495E-2,1.2443112E-2,-9.847014E-3,8.830344E-2,2.2683986E-2,1.6457437E-2,-2.172315E-2,-1.2993608E-2,3.1587954E-3],"split_indices":[0,2,1,1,1,1,1,3,1,1,0,3,3,3,3,0,0,0,0,0,0,0,0,0,0,0,0,0,0,0,0],"split_type":[0,0,0,0,0,0,0,0,0,0,0,0,0,0,0,0,0,0,0,0,0,0,0,0,0,0,0,0,0,0,0],"sum_hessian":[3.1104E4,2.3584E4,7.52E3,1.5699E4,7.885E3,1.539E3,5.981E3,5.201E3,1.0498E4,7.225E3,6.6E2,1.23E3,3.09E2,1.265E3,4.716E3,1.071E3,4.13E3,5.259E3,5.239E3,6.576E3,6.49E2,4.53E2,2.07E2,5.04E2,7.26E2,6.9E1,2.4E2,2.44E2,1.021E3,9.48E2,3.768E3],"tree_param":{"num_deleted":"0","num_feature":"4","num_nodes":"31","size_leaf_vector":"1"}},{"base_weights":[7.4058803E-6,6.1858696E-4,-1.4118938E-2,-5.1393136E-3,2.705094E-3,6.904036E-2,-4.5155954E-2,5.8341804E-3,-3.029559E-2,-2.113254E-3,1.3598379E-2,2.4921648E-1,2.87615E-2,-1.3096249E-1,1.9143283E-3,-7.904888E-4,3.9419584E-2,4.165075E-4,-3.8133E-2,1.6078298E-4,-1.2324343E-2,1.793722E-2,1.0102073E-3,-5.650812E-2,1.0614542E-1,9.032701E-2,-8.499402E-3,-5.911522E-2,-2.663272E-3,3.1987824E-2,-1.2195573E-2],"categories":[],"categories_nodes":[],"categories_segments":[],"categories_sizes":[],"default_left":[0,0,0,0,0,0,0,0,0,0,0,0,0,0,0,0,0,0,0,0,0,0,0,0,0,0,0,0,0,0,0],"id":45,"left_children":[1,3,5,7,9,11,13,15,17,19,21,23,25,27,29,-1,-1,-1,-1,-1,-1,-1,-1,-1,-1,-1,-1,-1,-1,-1,-1],"loss_changes":[2.6856163E-1,3.5822037E-1,3.3326287E0,2.1895473E0,1.1487732E0,2.5401406E0,3.796852E0,5.8736315E0,7.3896937E0,1.5665923E0,3.171856E0,2.9960046E0,4.4863567E0,2.68502E0,2.7143033E0,0E0,0E0,0E0,0E0,0E0,0E0,0E0,0E0,0E0,0E0,0E0,0E0,0E0,0E0,0E0,0E0],"parents":[2147483647,0,0,1,1,2,2,3,3,4,4,5,5,6,6,7,7,8,8,9,9,10,10,11,11,12,12,13,13,14,14],"right_children":[2,4,6,8,10,12,14,16,18,20,22,24,26,28,30,-1,-1,-1,-1,-1,-1,-1,-1,-1,-1,-1,-1,-1,-1,-1,-1],"split_conditions":[2.3E1,2E0,2E0,1.6E1,1.6E1,1E0,4E0,1.5E1,7E0,1.5E1,3E0,2E0,2E0,6E0,5E0,-7.904888E-4,3.9419584E-2,4.165075E-4,-3.8133E-2,1.6078298E-4,-1.2324343E-2,1.793722E-2,1.0102073E-3,-5.650812E-2,1.0614542E-1,9.032701E-2,-8.499402E-3,-5.911522E-2,-2.663272E-3,3.1987824E-2,-1.2195573E-2],"split_indices":[1,2,2,1,1,3,2,1,0,1,2,0,0,0,2,0,0,0,0,0,0,0,0,0,0,0,0,0,0,0,0],"split_type":[0,0,0,0,0,0,0,0,0,0,0,0,0,0,0,0,0,0,0,0,0,0,0,0,0,0,0,0,0,0,0],"sum_hessian":[3.1104E4,2.9815E4,1.289E3,7.93E3,2.1885E4,3.5E2,9.39E2,5.522E3,2.408E3,1.5174E4,6.711E3,6.3E1,2.87E2,3.32E2,6.07E2,5.174E3,3.48E2,1.815E3,5.93E2,1.4209E4,9.65E2,1.216E3,5.495E3,1.2E1,5.1E1,4.9E1,2.38E2,2.15E2,1.17E2,1.75E2,4.32E2],"tree_param":{"num_deleted":"0","num_feature":"4","num_nodes":"31","size_leaf_vector":"1"}},{"base_weights":[8.331355E-6,-8.6637813E-4,5.9053255E-3,-8.745943E-3,1.985061E-3,4.7525335E-2,-9.468437E-3,9.6834317E-4,-7.373721E-2,3.4144856E-3,-3.1221444E-2,-1.0797122E-2,1.03547074E-1,-2.4963366E-2,4.3875635E-2,-4.4936556E-3,5.955326E-3,-2.659958E-2,6.5104686E-2,2.8862403E-4,8.645182E-3,-3.405463E-2,4.2530377E-3,2.8881649E-2,-3.1178487E-2,2.709376E-2,1.3035643E-1,-2.1882597E-2,2.8101627E-3,3.0170286E-2,-1.9269146E-2],"categories":[],"categories_nodes":[],"categories_segments":[],"categories_sizes":[],"default_left":[0,0,0,0,0,0,0,0,0,0,0,0,0,0,0,0,0,0,0,0,0,0,0,0,0,0,0,0,0,0,0],"id":46,"left_children":[1,3,5,7,9,11,13,15,17,19,21,23,25,27,29,-1,-1,-1,-1,-1,-1,-1,-1,-1,-1,-1,-1,-1,-1,-1,-1],"loss_changes":[1.604496E-1,6.086332E-1,2.571392E0,4.544484E0,9.442566E-1,3.542899E0,2.4270566E0,1.8862543E0,4.0818305E0,1.188056E0,3.0688663E0,5.3148365E0,2.3830585E0,3.7479122E0,4.057564E0,0E0,0E0,0E0,0E0,0E0,0E0,0E0,0E0,0E0,0E0,0E0,0E0,0E0,0E0,0E0,0E0],"parents":[2147483647,0,0,1,1,2,2,3,3,4,4,5,5,6,6,7,7,8,8,9,9,10,10,11,11,12,12,13,13,14,14],"right_children":[2,4,6,8,10,12,14,16,18,20,22,24,26,28,30,-1,-1,-1,-1,-1,-1,-1,-1,-1,-1,-1,-1,-1,-1,-1,-1],"split_conditions":[8E0,2E0,2E0,7E0,2.3E1,1E0,6E0,1.3E1,2.3E1,2.1E1,4E0,1.1E1,2.3E1,1E1,1.6E1,-4.4936556E-3,5.955326E-3,-2.659958E-2,6.5104686E-2,2.8862403E-4,8.645182E-3,-3.405463E-2,4.2530377E-3,2.8881649E-2,-3.1178487E-2,2.709376E-2,1.3035643E-1,-2.1882597E-2,2.8101627E-3,3.0170286E-2,-1.9269146E-2],"split_indices":[0,2,2,0,1,2,2,1,1,1,2,1,1,1,1,0,0,0,0,0,0,0,0,0,0,0,0,0,0,0,0],"split_type":[0,0,0,0,0,0,0,0,0,0,0,0,0,0,0,0,0,0,0,0,0,0,0,0,0,0,0,0,0,0,0],"sum_hessian":[3.1104E4,2.7087E4,4.017E3,7.197E3,1.989E4,1.083E3,2.934E3,6.262E3,9.35E2,1.907E4,8.2E2,5.31E2,5.52E2,2.274E3,6.6E2,3.395E3,2.867E3,8.9E2,4.5E1,1.7392E4,1.678E3,2.91E2,5.29E2,2.47E2,2.84E2,5.32E2,2E1,9.48E2,1.326E3,4.33E2,2.27E2],"tree_param":{"num_deleted":"0","num_feature":"4","num_nodes":"31","size_leaf_vector":"1"}},{"base_weights":[1.1178773E-5,-2.2241557E-3,2.4067003E-3,3.9528455E-3,-1.0772796E-2,-6.5674996E-3,8.380274E-3,-1.3057288E-3,7.201801E-2,-1.5155902E-3,-5.5614833E-2,2.1053895E-2,-2.0132948E-2,-2.087694E-2,1.8033616E-2,9.456976E-4,-1.6013889E-2,-3.0327205E-2,3.287638E-2,-1.0989007E-2,6.5955734E-3,-4.357668E-2,1.7645761E-3,1.162046E-3,1.1453499E-2,-1.7463284E-2,2.8263698E-3,-2.282106E-2,-2.6292377E-4,1.7648067E-2,8.336943E-4],"categories":[],"categories_nodes":[],"categories_segments":[],"categories_sizes":[],"default_left":[0,0,0,0,0,0,0,0,0,0,0,0,0,0,0,0,0,0,0,0,0,0,0,0,0,0,0,0,0,0,0],"id":47,"left_children":[1,3,5,7,9,11,13,15,17,19,21,23,25,27,29,-1,-1,-1,-1,-1,-1,-1,-1,-1,-1,-1,-1,-1,-1,-1,-1],"loss_changes":[1.6656615E-1,8.4972715E-1,8.049798E-1,3.3438365E0,2.8019214E0,2.2489781E0,2.546482E0,2.0135899E0,4.3685436E0,4.618727E0,6.3679256E0,5.814949E-1,4.5301385E0,2.469345E0,4.218317E0,0E0,0E0,0E0,0E0,0E0,0E0,0E0,0E0,0E0,0E0,0E0,0E0,0E0,0E0,0E0,0E0],"parents":[2147483647,0,0,1,1,2,2,3,3,4,4,5,5,6,6,7,7,8,8,9,9,10,10,11,11,12,12,13,13,14,14],"right_children":[2,4,6,8,10,12,14,16,18,20,22,24,26,28,30,-1,-1,-1,-1,-1,-1,-1,-1,-1,-1,-1,-1,-1,-1,-1,-1],"split_conditions":[5E0,1.4E1,3E0,1.3E1,6E0,8E0,6E0,1.2E1,1E0,2E0,1.8E1,4E0,1.5E1,6E0,6E0,9.456976E-4,-1.6013889E-2,-3.0327205E-2,3.287638E-2,-1.0989007E-2,6.5955734E-3,-4.357668E-2,1.7645761E-3,1.162046E-3,1.1453499E-2,-1.7463284E-2,2.8263698E-3,-2.282106E-2,-2.6292377E-4,1.7648067E-2,8.336943E-4],"split_indices":[0,1,2,1,2,1,1,1,3,3,1,1,1,0,0,0,0,0,0,0,0,0,0,0,0,0,0,0,0,0,0],"split_type":[0,0,0,0,0,0,0,0,0,0,0,0,0,0,0,0,0,0,0,0,0,0,0,0,0,0,0,0,0,0,0],"sum_hessian":[3.1104E4,1.609E4,1.5014E4,9.341E3,6.749E3,6E3,9.014E3,8.672E3,6.69E2,5.595E3,1.154E3,1.976E3,4.024E3,2.236E3,6.778E3,7.989E3,6.83E2,1.19E2,5.5E2,2.243E3,3.352E3,4.69E2,6.85E2,9.87E2,9.89E2,1.758E3,2.266E3,5.94E2,1.642E3,1.844E3,4.934E3],"tree_param":{"num_deleted":"0","num_feature":"4","num_nodes":"31","size_leaf_vector":"1"}},{"base_weights":[5.7243797E-6,1.4962954E-3,-5.6292173E-3,-2.6162306E-3,4.2332374E-3,-1.3492807E-2,1.9127889E-2,2.6796681E-3,-9.705475E-2,4.045131E-4,7.23509E-2,1.6401954E-2,-2.4255157E-2,-7.728361E-2,3.351209E-2,-6.1777E-4,2.5282327E-2,3.983061E-3,-4.9687482E-2,9.732135E-4,-1.4089023E-2,3.3587366E-2,-1.3990891E-2,3.17563E-2,-1.3459748E-2,-1.7902492E-2,-1.501556E-4,-6.900248E-2,5.137291E-3,2.313872E-2,-9.580431E-3],"categories":[],"categories_nodes":[],"categories_segments":[],"categories_sizes":[],"default_left":[0,0,0,0,0,0,0,0,0,0,0,0,0,0,0,0,0,0,0,0,0,0,0,0,0,0,0,0,0,0,0],"id":48,"left_children":[1,3,5,7,9,11,13,15,17,19,21,23,25,27,29,-1,-1,-1,-1,-1,-1,-1,-1,-1,-1,-1,-1,-1,-1,-1,-1],"loss_changes":[2.6126805E-1,2.7689117E-1,1.2670391E0,4.916605E0,3.8520422E0,1.5894612E0,2.1784832E0,3.5996797E0,3.9513683E0,1.881173E0,3.7094226E0,7.173306E0,3.0558796E0,2.9452958E0,3.9018385E0,0E0,0E0,0E0,0E0,0E0,0E0,0E0,0E0,0E0,0E0,0E0,0E0,0E0,0E0,0E0,0E0],"parents":[2147483647,0,0,1,1,2,2,3,3,4,4,5,5,6,6,7,7,8,8,9,9,10,10,11,11,12,12,13,13,14,14],"right_children":[2,4,6,8,10,12,14,16,18,20,22,24,26,28,30,-1,-1,-1,-1,-1,-1,-1,-1,-1,-1,-1,-1,-1,-1,-1,-1],"split_conditions":[1.9E1,3E0,7E0,1.8E1,1.8E1,2E0,1E0,1.7E1,4E0,1.7E1,7E0,2.1E1,2.1E1,2.1E1,2.2E1,-6.1777E-4,2.5282327E-2,3.983061E-3,-4.9687482E-2,9.732135E-4,-1.4089023E-2,3.3587366E-2,-1.3990891E-2,3.17563E-2,-1.3459748E-2,-1.7902492E-2,-1.501556E-4,-6.900248E-2,5.137291E-3,2.313872E-2,-9.580431E-3],"split_indices":[1,2,0,1,1,2,2,1,0,1,0,1,1,1,1,0,0,0,0,0,0,0,0,0,0,0,0,0,0,0,0],"split_type":[0,0,0,0,0,0,0,0,0,0,0,0,0,0,0,0,0,0,0,0,0,0,0,0,0,0,0,0,0,0,0],"sum_hessian":[3.1104E4,2.4598E4,6.506E3,9.829E3,1.4769E4,4.938E3,1.568E3,9.308E3,5.21E2,1.3984E4,7.85E2,1.307E3,3.631E3,2.03E2,1.365E3,8.798E3,5.1E2,2E2,3.21E2,1.3194E4,7.9E2,5.89E2,1.96E2,5.31E2,7.76E2,1.457E3,2.174E3,7.7E1,1.26E2,8.19E2,5.46E2],"tree_param":{"num_deleted":"0","num_feature":"4","num_nodes":"31","size_leaf_vector":"1"}},{"base_weights":[1.942914E-6,1.0468382E-3,-3.9481693E-3,7.880079E-3,-7.4384006E-6,9.769717E-3,-1.3149939E-2,-1.2855018E-2,2.9816981E-2,-1.1823715E-2,2.1317494E-3,-1.4610084E-2,3.5365626E-2,1.8490732E-2,-3.4410086E-2,-6.8737944E-3,5.0531927E-2,1.4017394E-2,-7.9310775E-2,1.8366039E-3,-3.2858554E-2,-2.8502196E-3,3.0131803E-3,1.903263E-2,-2.0729847E-2,1.95624E-2,-1.4266806E-2,2.4597732E-2,1.2348993E-3,-2.2670347E-2,3.6220878E-5],"categories":[],"categories_nodes":[],"categories_segments":[],"categories_sizes":[],"default_left":[0,0,0,0,0,0,0,0,0,0,0,0,0,0,0,0,0,0,0,0,0,0,0,0,0,0,0,0,0,0,0],"id":49,"left_children":[1,3,5,7,9,11,13,15,17,19,21,23,25,27,29,-1,-1,-1,-1,-1,-1,-1,-1,-1,-1,-1,-1,-1,-1,-1,-1],"loss_changes":[1.2838857E-1,1.7721435E-1,8.2149947E-1,1.4959755E0,5.387336E-1,1.6310892E0,2.6207454E0,3.0872214E0,7.960807E0,5.728975E0,1.6610191E0,5.6991735E0,3.1581893E0,1.4291058E0,3.3114293E0,0E0,0E0,0E0,0E0,0E0,0E0,0E0,0E0,0E0,0E0,0E0,0E0,0E0,0E0,0E0,0E0],"parents":[2147483647,0,0,1,1,2,2,3,3,4,4,5,5,6,6,7,7,8,8,9,9,10,10,11,11,12,12,13,13,14,14],"right_children":[2,4,6,8,10,12,14,16,18,20,22,24,26,28,30,-1,-1,-1,-1,-1,-1,-1,-1,-1,-1,-1,-1,-1,-1,-1,-1],"split_conditions":[1.9E1,1E0,2E0,5E0,2E0,5E0,3E0,1.8E1,1.8E1,1.6E1,2E0,2.1E1,8E0,2E1,5E0,-6.8737944E-3,5.0531927E-2,1.4017394E-2,-7.9310775E-2,1.8366039E-3,-3.2858554E-2,-2.8502196E-3,3.0131803E-3,1.903263E-2,-2.0729847E-2,1.95624E-2,-1.4266806E-2,2.4597732E-2,1.2348993E-3,-2.2670347E-2,3.6220878E-5],"split_indices":[1,2,3,0,2,0,2,1,1,1,3,1,0,1,2,0,0,0,0,0,0,0,0,0,0,0,0,0,0,0,0],"split_type":[0,0,0,0,0,0,0,0,0,0,0,0,0,0,0,0,0,0,0,0,0,0,0,0,0,0,0,0,0,0,0],"sum_hessian":[3.1104E4,2.4598E4,6.506E3,3.287E3,2.1311E4,2.612E3,3.894E3,1.69E3,1.597E3,3.266E3,1.8045E4,1.338E3,1.274E3,1.565E3,2.329E3,1.602E3,8.8E1,1.511E3,8.6E1,2.76E3,5.06E2,7.305E3,1.074E4,5.5E2,7.88E2,9.37E2,3.37E2,2.88E2,1.277E3,1.062E3,1.267E3],"tree_param":{"num_deleted":"0","num_feature":"4","num_nodes":"31","size_leaf_vector":"1"}},{"base_weights":[-1.256057E-7,-3.3044282E-3,1.3443115E-3,-1.989788E-2,2.688291E-3,1.0124087E-2,-5.336655E-4,3.7732128E-2,-2.9719127E-2,1.2966689E-2,-9.564204E-3,7.510216E-2,2.9280395E-4,-3.1668544E-3,1.7175257E-2,-1.8816922E-2,4.2985078E-2,-5.9691463E-3,-2.2932647E-2,-2.2933573E-2,8.261027E-3,-2.3354558E-2,1.5475408E-3,-1.46132E-1,4.1506626E-2,2.1422407E-2,-5.6435075E-3,5.3356873E-4,-5.2500744E-3,1.4613659E-2,-1.6930198E-3],"categories":[],"categories_nodes":[],"categories_segments":[],"categories_sizes":[],"default_left":[0,0,0,0,0,0,0,0,0,0,0,0,0,0,0,0,0,0,0,0,0,0,0,0,0,0,0,0,0,0,0],"id":50,"left_children":[1,3,5,7,9,11,13,15,17,19,21,23,25,27,29,-1,-1,-1,-1,-1,-1,-1,-1,-1,-1,-1,-1,-1,-1,-1,-1],"loss_changes":[1.3818613E-1,8.946148E-1,3.645599E-1,1.35216E0,8.325611E-1,2.4888122E0,8.494369E-1,3.6988988E0,9.3466043E-1,4.6854467E0,3.03247E0,1.8274904E1,4.6002727E0,1.1241192E0,1.6971636E0,0E0,0E0,0E0,0E0,0E0,0E0,0E0,0E0,0E0,0E0,0E0,0E0,0E0,0E0,0E0,0E0],"parents":[2147483647,0,0,1,1,2,2,3,3,4,4,5,5,6,6,7,7,8,8,9,9,10,10,11,11,12,12,13,13,14,14],"right_children":[2,4,6,8,10,12,14,16,18,20,22,24,26,28,30,-1,-1,-1,-1,-1,-1,-1,-1,-1,-1,-1,-1,-1,-1,-1,-1],"split_conditions":[7E0,2E0,1E1,1E0,5E0,1E0,8E0,5E0,6E0,1E0,2E0,1E0,1E0,6E0,1.6E1,-1.8816922E-2,4.2985078E-2,-5.9691463E-3,-2.2932647E-2,-2.2933573E-2,8.261027E-3,-2.3354558E-2,1.5475408E-3,-1.46132E-1,4.1506626E-2,2.1422407E-2,-5.6435075E-3,5.3356873E-4,-5.2500744E-3,1.4613659E-2,